27574 100
the -2.3586748 -0.2505368 -0.6495668 0.12732957 0.25648463 0.43811175 0.52839756 0.8858557 -0.20022757 0.4486634 0.10539326 0.9333645 0.350329 0.13546193 -1.1554661 -1.8261224 0.0064138863 1.7986879 1.5160984 1.3811407 0.5564286 1.7206603 0.66662985 -1.1829045 -1.7337945 -0.18092032 -0.87697476 0.53172964 1.2703874 -0.9029666 0.081187434 -0.24127679 -0.029040283 -0.070019595 -0.36091918 0.68054235 0.8229418 1.0537912 -0.9986751 0.5998702 1.7748451 -0.2529969 0.14378574 -0.9023176 0.33320758 0.23759079 -0.12649614 0.3737551 -1.5572258 0.5453468 -0.8267225 -0.42270893 1.5981716 0.23517 0.8226135 -0.9704672 -0.41986024 -0.79133505 0.9147607 0.68055445 -0.69663924 -0.075621136 -0.6804386 0.1777104 -0.018736174 -1.1220142 -1.6080151 0.09063534 0.9243535 -0.71269715 0.9362558 1.0988835 -0.7007668 0.83939075 0.8790531 -0.9873862 -1.5774616 0.116917506 -0.36241135 -0.21907037 -0.45216426 0.30103046 -1.9577762 0.17559713 1.2826658 -0.016717277 -1.0605477 0.65784705 0.89392424 -1.2390435 2.656635 -0.9528748 0.55622005 -1.3073604 1.6953669 -1.2171646 0.03195466 1.3574668 -1.199466 0.33730668
' 0.9647774 -1.0529876 -1.1003729 1.276422 -1.242938 1.3156935 -0.5055379 -1.6443858 -0.81969434 -0.33216724 -1.5269994 0.25469014 -0.17845425 0.55189574 -0.33838794 0.5647369 -0.13163969 -1.7675759 -0.5793937 -1.0185034 1.6893511 1.8228161 1.8737081 1.4390029 -0.66197354 -1.683785 -0.99409693 0.5532126 -2.1841161 -0.40929285 0.087277725 -1.6168723 -0.53097385 1.3814096 1.0073636 0.24296908 0.24246736 1.0841687 0.55039567 -0.83467424 -0.9873175 1.5931785 -0.263008 0.4161899 1.906817 2.3365912 0.16459619 1.3582658 0.42988646 0.24005404 0.032113973 -0.8753311 0.37914744 -0.02608784 -0.36384836 -0.3197526 1.3385596 -0.9952583 -0.7336527 0.7313791 -1.6202453 0.94595957 -1.6232555 -0.24907982 1.9138963 1.498759 -1.1375622 -0.5448039 0.10473267 0.8860155 -1.7052037 -1.0111823 0.09053468 0.23474221 0.5610116 -0.9905111 -0.9866307 -0.42835554 1.006094 -0.1462061 1.7031369 -0.9668932 0.9437691 0.08340166 0.3386943 1.9220186 0.9547276 -1.5809072 0.92020786 -0.27014127 1.6231763 -0.5585331 -1.5373483 -0.24657425 0.57894504 -0.9459788 0.07247099 -2.563749 -1.6535829 0.92385924
and 1.207489 1.3737392 1.0724834 -0.50621766 1.832988 -0.4511975 0.022616182 0.5423277 2.119648 -0.41637772 0.45959365 0.652448 -0.519461 -1.1329448 -0.91689694 -1.3388511 -0.28772458 -1.4717551 -1.0084893 -1.350914 1.6021585 0.68423295 0.9743368 -2.001217 -0.8450626 0.5055062 0.44691393 -1.1174337 -0.6417178 -0.5392106 1.0308527 -0.77362007 -0.5738151 1.9463816 -0.9863589 -0.21106955 0.7129043 -0.51017123 -1.2313901 0.123314954 1.4799122 -0.008128292 -1.1122891 0.05583154 -2.0947623 0.7107162 -1.3787667 0.21258259 0.7382649 1.20781 -0.84360105 -1.0422164 -0.73371744 1.3457141 -0.29983988 -0.26311943 -0.19894283 -0.35624543 0.37420323 0.038357344 -0.521506 0.037577037 -0.54691017 -1.3031216 1.6995411 0.4676209 1.3473759 1.5424674 -0.14761788 -1.7100669 -1.2015517 0.6088861 -0.93666434 0.12137219 0.6269124 1.3111256 -1.3971031 1.3359019 0.46474668 1.3171458 0.17249943 1.735385 0.41322377 0.45224783 1.3436711 -0.57319784 0.95451653 1.1551806 -1.3113624 -1.2935555 -0.22557503 -1.711647 -0.28496554 -0.3274294 -1.725641 -1.2313646 0.20695657 -1.2644341 0.19489141 -1.810924
to -0.603631 -0.8455874 -0.3395626 -0.34405494 -2.4068305 0.22409688 1.695269 -1.2052399 0.6329039 1.2461631 1.2878375 0.026654806 0.17971574 -1.3946205 0.5157634 -0.1477151 -1.0484797 -0.7025738 -1.9752796 1.2680275 -1.3385166 -0.31132087 1.0983096 -0.90482265 0.08653512 -2.3729918 0.7126386 0.059894267 0.1688985 -0.86655426 0.3151441 -1.420963 1.2074535 0.5927185 0.7389114 0.3990429 -0.5277149 0.23301232 -1.4468899 -1.969379 -0.01025901 -1.1797247 1.7380024 -0.25088978 -1.3535848 -0.032345414 1.3462834 -0.45429325 -0.024767749 0.30928206 -0.93503827 2.3067582 -0.043059222 0.2772946 0.60415757 0.22356412 -0.06728991 0.32757136 0.059626903 1.8418261 -0.5472991 1.379496 -0.6619866 1.3014096 -1.5946169 -0.71771646 0.21004401 1.5782816 -0.76721644 -0.063539624 -1.3085058 -0.8189326 -1.8569742 -1.368451 -0.9759259 -0.83694845 0.7378597 -2.0089993 -0.18182826 1.7885538 -0.7264697 -1.9065526 0.4595452 -0.3826389 -0.17136176 -1.4117984 1.1521696 0.9063893 -1.0683687 -0.07121594 0.9902975 0.5394657 -1.2188534 -0.2709628 -1.3489689 0.3213043 0.045457285 -1.3177885 1.4080429 1.1155671
a -0.6502206 -1.8906516 -0.41122136 0.32131705 -0.7866627 -0.88251954 -1.0079118 -0.6193375 1.1436595 -0.35139298 1.7201947 -1.3782587 -0.16730765 0.6937516 0.1355564 -0.42529365 -1.1525977 -0.49708608 0.59371424 -0.491529 -0.61327803 1.463587 -0.67354417 -0.20615977 -0.29937267 -0.54805046 1.4971628 2.256149 -0.33980197 -0.67844975 -0.72657764 0.6863327 0.32293135 0.46270037 0.54380083 -0.5199613 0.69594514 1.1285998 -2.6243644 1.2474564 -0.19223218 -1.149858 0.49195582 0.026580693 -0.5555681 0.6378884 -0.09576375 -0.43001315 0.86080754 0.6751347 1.4731919 -2.360992 -0.04649541 -1.0371988 1.0294495 -1.4815054 -1.4890461 -1.780521 -1.4124951 -1.7025974 -0.7172821 0.29562542 1.3019664 -1.4881828 -1.0025908 0.9549596 0.35780343 -1.1725249 -0.47881436 0.7391613 0.4474898 1.1996496 -0.856252 0.25780058 -1.4924783 -1.5710764 0.19686897 -1.1336187 -0.5184047 1.7279541 -1.907395 2.2983117 -2.0111253 0.2237732 2.2212849 0.60193795 -1.0651429 -0.34748998 -0.59462386 -1.0672853 0.45569038 -0.8878127 -0.09409006 0.6662825 1.9687883 -1.3060027 -0.17935254 -0.23195572 0.9829714 0.36469182
she -0.4748415 0.7228767 0.8765482 0.058212213 -0.14735007 0.97484165 -1.791775 -1.5447866 -1.0727539 0.1361091 0.96368855 0.20795013 -1.1373146 -0.1846742 1.2517967 -0.8879162 -1.9485918 0.65785515 0.5784193 -1.7407842 -0.51783717 -1.0608165 -0.15703091 -1.4598249 -1.7242295 -0.20472276 0.38473785 -0.27335042 1.595808 -0.42907435 1.1848874 -0.437112 -0.57622457 -1.1942719 0.25334597 -0.9167239 -1.7009847 -1.1819408 -1.1012232 -0.77864206 -1.3880208 -0.5022354 -0.053923797 -0.4073263 -0.48111555 -0.4236696 0.6071244 1.3825061 0.88496375 -1.2880553 0.61774546 -1.4067138 -0.05167076 1.265745 0.10076366 0.09576949 -1.0283734 0.6860496 0.5198358 -0.79118 -0.75471777 -0.85824317 -2.133588 -0.27187765 -0.6046198 0.45128566 2.4100192 0.24749988 0.13028876 0.61304533 -1.2711453 0.5534348 -0.6971775 -0.9430949 0.48605642 -0.33198708 -0.5608224 1.4118859 -0.35456833 -0.2940306 0.41327718 -0.98906076 -0.97820044 1.098241 -1.0364081 -0.4128247 -1.0333683 0.5753237 -1.3776652 -0.8487666 1.4434857 -2.0239198 -1.335343 -1.2884876 1.635765 0.12156938 -0.6288595 1.2903469 -1.5031239 -0.6722329
of 0.1790687 0.6004452 -2.1497316 -0.12396684 1.2336609 -0.055591196 -1.7189703 1.1226937 2.105661 1.0461211 1.9306986 1.115603 0.04479288 1.8445483 0.9506737 -1.7911556 1.8927302 1.8469504 -0.9724432 -0.11880724 0.025159635 -0.10573524 -1.1092708 -0.7677373 1.5057154 0.50624144 -1.452746 -1.3629045 0.13258725 -0.47760656 0.27987275 1.0221294 0.9954895 -0.083282 2.2394414 0.61077833 -0.038373925 0.70188856 0.7116305 -1.5245901 -0.69323975 -0.607091 -0.6333759 -0.8734244 1.5008441 -1.8072003 -0.65881395 -0.27406862 -0.43273807 1.5421958 -1.6314971 -0.8461534 -1.9126298 -0.122357026 -0.22472332 1.3508425 1.9123914 0.64473444 -1.9177939 1.8718374 -0.5835989 0.75134975 0.17370589 -0.92271835 -2.0169787 0.6654829 -0.763805 -0.7140488 -0.29410866 -0.49088955 -0.9327627 -2.2247636 0.7766192 0.24270403 0.6784856 -1.1951251 -2.4741611 1.9166148 1.2163235 1.0293308 -0.6616533 0.88668007 0.059015203 0.9034579 -0.27390426 -1.4275255 -0.89719915 -1.733992 1.3199644 -0.34435055 -0.92913747 1.5391506 -1.2614775 1.4292988 0.61184484 -0.9541069 -0.7872334 -1.2813485 -1.2621914 1.0464528
it -0.46824604 0.5600879 -0.1872289 1.5684724 -0.24236386 0.11412145 -0.80874217 -1.6919354 1.0563136 -0.6145589 -1.0996828 -1.1934469 -0.80346406 -0.03175455 -1.013088 1.6402901 0.7120647 1.0131336 0.7885479 0.7110456 -0.8676648 -0.47894853 0.25675508 -0.62761986 1.032715 0.79193795 2.3772352 -0.009596863 0.4690223 0.12992813 1.3779198 0.25674573 -0.5133649 0.9066857 -0.08591071 0.44111687 -1.6349877 -0.638051 -0.09884684 -0.3483954 -0.68520635 -1.1397403 0.006311908 -1.5233513 -0.032495108 1.2439615 -0.52064127 0.8474895 1.2810168 -0.59123254 -0.2191761 -1.977024 0.35855588 1.0447848 0.24566658 0.6104623 0.48511413 1.2780548 -0.7021315 -0.6369375 -1.1114118 -1.0018264 -1.8829062 0.7772089 -1.6116209 1.1043975 -0.6757866 -0.23285574 -0.5245163 0.51957613 -1.9380206 0.88042104 -1.0038954 -0.66493726 -1.4941733 -0.6934143 -1.9513075 -0.27957228 -1.3623292 -0.27668926 1.4783283 -0.87108654 -0.2874603 -1.8531885 0.2865861 0.55691755 -0.19570175 0.92133534 -0.05383794 0.022455802 2.0897653 0.86071724 0.875177 0.6296481 -1.6527176 -1.3765031 0.7024254 1.4640573 0.08742063 -1.2441545
said 0.5801924 1.6650772 -0.55697256 1.9898669 -0.7228086 -1.6047903 -0.24917278 0.6196173 -0.4167945 -0.98867863 1.1942976 0.23729339 0.56076884 0.9532589 0.52119404 -0.9393517 1.0430201 -1.111579 0.95669436 -1.3880947 -2.2130384 -0.44743326 0.5140501 0.46315876 -0.35582083 2.188023 0.22026528 1.2064087 -1.4277091 1.2240108 -0.67065567 -0.6113377 0.21248129 1.8287833 -0.27700374 1.2897168 0.93362623 -0.73310536 0.40385053 1.4829249 0.28339925 0.5416604 -1.2134336 -0.07328194 0.39153132 -1.3960023 0.93017954 -0.29197943 -0.27529874 -0.9207647 0.1246404 2.366737 0.6117182 -2.0165393 -0.4053861 -1.0462621 0.9923951 0.6622358 -0.44787377 -0.6228403 -0.74112517 -0.73036706 0.9652166 1.1609668 0.4873602 -1.455641 -0.1489285 -0.47895676 -1.104914 0.9853443 -1.3110473 -0.09748095 -1.9542044 -0.8291293 -0.74690056 -2.6445591 -1.0206417 -0.30742976 0.28918758 -0.15645118 -1.541592 -1.6116325 -1.3345944 -0.053637415 0.21032286 -1.2565917 0.33092955 -0.9430213 0.81629175 -1.5877824 -0.51113534 -1.203503 1.1495744 2.01277 -0.20074855 -0.6236913 0.95500636 -0.5220697 -1.4910393 -0.57200944
alice 0.7147251 -0.1635313 0.8978517 1.9488382 1.2858267 -0.44218543 -0.4695627 0.63912 -1.2374898 -0.38214463 -0.28033015 1.0724984 0.7619472 -0.1980509 -0.76663107 1.4024881 -0.3553793 0.2343008 -1.1487396 -0.530812 0.1643264 1.0271596 -0.17627414 1.1713945 -1.3837373 0.02385301 0.3537551 0.8672205 1.0469598 -2.0857882 -0.12439941 -0.7499738 -0.64778984 1.1441836 0.20443048 0.19554493 -1.6020316 1.1746442 -0.6025234 -2.0277743 -0.9431748 -0.5368721 0.5734349 -0.6933661 -0.43087074 -2.0673037 0.7905479 0.7205191 -0.88689685 -0.7830036 -1.5249612 -1.4065611 1.2767903 0.35031366 -1.0034022 -0.5413867 0.294289 0.99088585 -0.0749111 -0.90082246 0.78781897 1.088904 0.20893553 1.4355867 -1.54168 0.323548 0.80938154 -1.6684861 0.57913244 1.2503419 -2.7502673 -0.7797117 0.085986 0.42051062 1.7656463 -0.9832781 0.85342634 -0.4967497 -1.4591376 -1.6431692 -0.6267836 -1.2432231 -2.1887546 -0.34404677 -0.60063565 -0.11431003 0.25301012 1.6208851 -2.6452773 -1.7625426 -0.33088288 -2.445783 -0.7635514 -0.010588205 0.5132191 -0.80689424 1.0413529 1.5434815 -0.60257035 -2.0524979
in 0.29710215 -0.8689741 1.333428 -0.4845838 0.15689626 0.81664264 0.8391803 1.4144151 1.1061368 0.17548305 -1.1172984 -1.2791129 -0.13702752 -0.85917485 0.6199673 -1.5142406 -0.009950286 0.28664622 -0.2770753 -1.3898622 -1.7346421 0.06399416 -0.32929847 -1.0254399 0.98830336 -0.804036 -1.5520053 -2.1163056 2.185665 0.088937044 0.7540708 -1.1037632 0.12075629 0.93706876 0.11438343 0.13259593 2.356034 -1.0577167 -2.3700812 -0.90933365 -0.6595686 -1.5865829 0.34644464 0.06913201 0.406062 0.33495772 -1.9385765 -0.98756415 0.11301285 0.16884048 0.97364694 0.3546245 -1.0528469 -2.395039 -1.2907429 1.5791565 1.1055822 -1.385812 -0.77216464 1.2814999 -1.0257765 -0.33940715 2.0645022 1.0372423 2.0984807 2.343028 -1.1447866 -0.044575494 -0.93335456 -1.3031434 2.2945359 -0.11623154 0.16085498 0.5235699 0.5654471 -1.2099472 -2.0774174 1.0081784 -0.70593214 -2.673173 0.955238 -2.098029 1.2995543 -0.45659718 0.027673194 -1.3190639 1.3933253 -1.5910137 -1.2724392 -1.3437896 1.1692791 -1.192612 -0.24580823 -1.7564965 0.6690186 0.63955146 -1.2406453 0.043211613 0.71501565 -2.8004682
was -0.79775405 0.9950318 0.6139725 -0.84791493 0.46867865 0.9785096 1.6874385 -0.7357786 0.6674551 -0.9038072 0.2309508 0.31778926 -0.29862988 2.0520225 0.29079944 -2.4634368 0.5201231 0.3013757 0.7916715 0.07355587 -0.15322691 0.7093639 0.38663208 0.062161062 0.08027232 0.27616245 1.2546595 0.30786636 0.42136833 1.4148916 -2.0295496 -0.24950196 -1.9390485 1.9450471 2.5765374 -2.6544836 -0.75203323 -0.19811791 -0.9745828 -0.08540278 1.4064223 1.38211 1.1457006 0.1143683 0.73173976 -1.2559091 0.752495 -0.5741748 0.0063950266 1.4254603 -1.1674372 1.1633042 -1.3503429 -0.8661116 -1.976589 0.18456498 -1.2379963 1.1539605 1.6525815 1.0648301 1.1472688 1.1248058 -1.663451 0.45297816 -0.526235 0.23137228 -0.5353718 0.7849445 -0.9632284 -0.5286139 -1.5967506 0.19630875 1.0142598 -0.8260721 0.8092983 -0.06809874 -0.35655183 -0.05015924 -0.01683538 1.437572 0.59191656 -1.4702828 1.5828063 1.1000878 0.7802899 0.11550338 -1.010319 -1.3944106 -0.014712833 0.2633343 0.7975629 0.21811478 1.036329 2.7823842 1.280785 -0.31527984 -1.4312252 -0.45442817 -0.33013782 -1.761811
you 0.37013438 0.6529639 -0.5613778 0.42268425 -0.8873905 -0.89898884 0.66623497 -1.0011909 1.2475609 0.046047438 0.9242554 0.27416718 -1.655695 1.0233885 0.6688633 1.0034673 -0.3989641 0.1071114 -0.95066136 0.1925306 -0.30901748 -1.2856888 0.55212706 0.62599367 -0.3705879 0.7445556 -0.007889866 -0.27586097 -1.4155462 0.36504212 -1.6612737 -1.581363 -1.7263298 -0.80873114 1.2140685 -0.14620548 -1.0089029 0.75940996 0.84823334 0.014255228 1.0501475 -0.8520873 -0.56611824 1.5492935 0.028269289 1.3793466 1.2185664 -1.205113 -1.1185913 0.1237061 1.223273 -1.4047489 -0.56782943 0.851153 1.6534494 -1.2234608 -0.18098143 0.7639511 1.1349599 -0.03334588 -0.051260743 -0.50953734 -0.3157271 0.2949855 0.36302158 0.326289 2.0064573 1.1891536 -0.17431429 2.4941745 -0.60445297 -1.9988974 0.33390602 -0.15620913 -0.77726656 0.25935942 -2.2983835 1.0956948 -0.71549046 -1.74358 0.20852904 -0.53365266 -2.1802275 -1.0713669 0.18765306 -1.8827991 0.5072245 1.7179993 -1.1072698 1.4677553 2.6851764 0.78419703 -1.0857515 -0.90850526 0.5607222 0.7553962 -0.007905628 1.2634187 0.4324246 1.2083281
i -0.9621472 -1.0723567 0.66997045 0.90665597 0.76479876 0.3754458 -0.7787224 -1.8533453 -0.49853683 1.4392467 -0.5334627 0.07796493 -1.1939851 -1.6495478 0.8797247 0.54017776 -0.3194909 0.6353469 -0.8970776 0.19334196 0.9254811 -1.8866324 -0.27204183 -0.91832995 0.10483991 0.08014014 -1.2731277 1.6469775 0.8176124 0.33323917 -1.3605839 -1.0769683 -0.044160925 -0.12489103 1.7275227 0.7794057 1.1406881 -1.994081 -0.042922523 -1.5873225 1.3977301 -0.13389274 -0.812841 1.3992838 0.7005186 0.68653315 -2.2187352 -0.40449178 0.08241128 -0.13268869 0.8540238 -0.49806884 -0.5092829 1.0844296 -0.98199075 0.41612065 -1.3498031 0.8104764 -1.601046 -1.0559181 -1.5319345 1.4342268 -1.0384375 0.15830897 -0.016602041 -0.7030025 -1.1709464 1.2603304 -1.2257583 2.832705 0.15069056 0.2055828 -0.7790001 -0.5536895 0.14238055 0.7882977 0.20874624 1.0454869 -2.0308285 -0.8739484 0.28561077 -1.0514917 -2.0411386 1.148504 3.20473 1.2931242 0.32088166 1.0530545 0.17106673 0.72315365 1.1506665 -0.08637424 -1.4420215 2.0799642 -1.3098661 0.16937362 0.30694103 1.2354527 -0.5128185 0.9506123
that 0.6081361 -0.58279806 -1.5261871 2.710136 -0.9791602 -0.0571823 -1.5080475 -1.2416807 0.19907962 1.6355724 0.48505276 0.102141686 0.95130557 -0.8728288 -1.0566216 0.19122529 1.6256133 -1.3473074 -1.190389 1.316332 -0.64104664 0.5033692 -2.1656961 -1.0562315 -0.70098215 0.18924971 -1.3501145 0.1853782 0.6398261 0.86326516 -1.0442116 0.19667831 -1.6779991 -1.874025 -0.74162793 -2.050685 -2.087804 1.0439379 1.5392764 -3.107448 1.4083927 -0.34476414 0.19576459 0.84887904 -0.026676552 0.42146716 0.13928488 -0.6642459 0.21323586 -1.3646677 -0.9469958 1.2329288 -0.842099 0.0668247 0.72619003 -0.42580247 -0.8809865 -0.23609164 -1.9664897 0.51328987 0.976148 -0.583594 -1.7926638 -1.5507699 0.014005461 0.64252216 2.552079 0.41588202 2.3648806 -0.19844827 -0.018094733 0.70895 0.85197896 -0.24616747 0.66829747 -1.1327821 -0.26904944 0.72734594 -0.65297776 0.54513025 0.79228 -2.1517754 -1.8209498 0.8727414 0.18100607 0.18529175 1.7857282 -1.1204209 -0.9642168 -1.8853889 0.75076395 -1.4117612 1.2352402 0.56238604 -0.9196743 0.06650691 -0.9359612 0.4869378 0.6163831 -0.8920447
as -0.9844979 2.394882 -0.8535905 1.6303087 1.1976802 -0.9478113 2.034583 1.2764952 0.12656893 1.1252478 1.9958378 -0.92325586 -2.0544446 -0.06967265 -1.5493685 -0.6838955 0.18377328 -1.0359946 0.7371673 -0.9818911 -1.4071659 0.3406073 -1.5443251 0.003986398 1.625862 -1.5347394 -0.63101786 0.001507367 0.5600065 0.055746216 1.0832394 -0.05463401 0.042363234 -0.442041 -0.7789768 -0.36914933 0.515133 0.7746658 -0.71826386 1.4083308 -1.2152666 -0.586358 2.1545131 1.8435959 1.0241042 0.68129575 -0.5259191 -2.3464036 1.2057871 -0.54428476 -0.4036313 0.13505095 -0.88229406 -1.0833685 1.8919972 1.5384812 -0.24027064 0.42311847 1.63109 0.027386963 -1.1008809 0.10876049 -1.1617335 -0.09253465 1.0412362 0.3705449 -0.57413715 0.4809474 1.4928632 0.84523135 -1.5342343 0.6050365 0.3895117 -0.6787103 -0.13919964 -1.4803025 0.52944964 -1.1102839 0.100856796 -1.0533583 -0.29452047 0.99918395 0.9469412 1.4656936 -1.02015 0.16528468 1.1061835 -0.007465749 -0.5057591 -1.5214206 0.9443105 -0.56407666 -1.3419539 1.4996746 -0.43192917 -0.8323208 -1.3438532 -1.3330823 -1.4297941 -0.14168243
her -1.7880325 -0.04071169 -2.3201756 -0.6130863 -0.6339954 -0.530116 0.93764234 1.05087 0.9485808 -0.89305586 2.3141425 -1.9350541 0.14280953 -0.6617385 -2.32362 -0.6973761 -1.4479825 -0.43528566 2.1637003 1.3785925 -0.41184586 -0.64361763 -2.6085255 1.09111 -0.66886175 -0.6007994 1.063986 -1.4576328 0.9915581 -1.4278046 -0.6400164 -0.9992799 -0.263086 -0.13713896 1.4652741 -0.26522735 -0.8107129 -2.911838 0.44111052 0.7270703 -0.8436121 2.308825 0.28527457 -1.8302847 1.8262368 0.10955944 0.36246905 0.5126664 1.6724036 2.2888112 -1.0885962 -1.8589011 0.024151996 1.067187 -0.21734232 -0.9074374 1.0256237 -0.8498529 1.1765575 0.44427335 -0.102178715 1.8497741 0.22869566 -0.4263913 -0.085151315 -1.0324328 3.3819492 -0.8934511 -0.79432446 -0.57433075 0.70827174 -0.47800165 0.29524013 0.517583 -0.436489 0.42291653 0.27297896 1.7121869 -1.1246672 -2.3034124 1.3881518 -1.8629878 0.13052055 0.6212044 0.3307628 0.39952976 -0.24623445 -0.6000895 0.79275614 -1.4594303 -0.42777228 -1.6576211 -1.6901138 -0.23518807 -0.8359789 -0.70706093 0.8548387 -0.8516916 1.4642603 -0.39441705
at -0.96629405 -1.3833239 1.3045291 1.2960291 0.5446587 -1.3375753 -0.55998576 0.06074264 0.41009957 -0.6792409 -0.35360977 1.6075453 0.567931 -0.88135266 -0.37331566 1.0240861 0.9567532 -0.44329956 -0.97230667 -0.7306383 0.2865647 0.7473053 1.2105198 -0.99795896 0.33983666 0.21877639 2.3025033 -1.628807 1.0322407 -0.7699777 -1.3587329 0.8868955 -1.2286593 -1.2706728 2.1185987 -0.5775052 1.1399603 -3.2163203 -1.8179669 -0.998409 0.92506045 0.1635333 1.480888 0.366781 -0.42599198 -1.4608189 -1.6501033 0.13842864 -0.8625934 1.1869367 -1.3520997 0.6945784 -1.0646025 -1.5554451 0.049032204 -0.28555864 1.6070228 1.3393444 -1.77934 1.3481048 0.0780152 -2.1078167 -1.0526392 -0.5423302 2.1624086 -1.26555 0.65502334 -1.3412983 0.5636478 1.2314717 0.2109098 0.18589357 -0.12316537 -0.8478221 -0.98578554 -2.7519095 -0.33210537 -0.77589166 0.43867737 1.312219 -1.775576 -1.1841383 0.41543505 -0.82305557 -0.5067505 0.73245597 0.1491519 0.5361428 -0.14754602 -1.8962159 -0.022552213 0.02406187 -1.1375834 -1.0475329 -0.4586349 0.10006695 -1.3891965 -0.05754161 -1.5427452 0.5195688
on 0.36604446 -1.9400516 1.3105562 -2.15932 1.207095 1.9881127 1.1144137 0.68054014 -0.8469147 0.32913405 1.2446153 1.9855117 0.19776382 0.44511074 0.5541267 -1.1404861 0.55399436 -0.17359316 2.6415336 -2.1060305 -0.7122219 -2.247004 -2.175473 -1.4924542 -0.055625174 1.8475147 0.7501794 0.00599323 -2.0827637 -0.8919598 -2.0313933 1.036165 -1.0146115 -2.0749233 -0.43420783 -2.1208148 0.92271596 -1.3547807 -1.0576199 0.51472443 1.0354958 1.186481 1.7816925 -0.6295051 -2.3444748 0.31357157 0.57600546 -0.18604332 0.20302442 0.19424433 -0.66962034 1.0699888 -0.87225336 0.86502266 2.2141066 -0.84519863 2.6154096 -0.38899013 -0.93547416 2.3798256 -1.3674518 -1.7160813 -0.41140464 0.19348054 -2.0098176 0.86850595 -0.52114224 0.6029964 1.1943293 -0.76965123 -0.8710503 -1.8215265 1.2094053 1.1011945 -1.1150457 0.9025329 -2.207516 -2.0847435 -0.7385069 -0.8747793 -0.32933667 0.50760776 0.61130655 -0.39663303 1.0922321 0.7635389 0.34396544 0.62859344 -1.0122043 1.5427189 0.49692065 -0.7429718 -0.18495265 0.19667497 0.428508 -1.0839318 0.95949215 -0.47927776 -1.5020399 -1.3045775
with 0.13273278 -1.8870418 -3.0697827 0.84529966 -1.5865074 -0.43844986 0.8105319 -0.858942 0.0002887431 0.92343336 1.0146284 0.53053916 0.6700403 -1.2477645 0.26911134 -2.618896 -2.1370103 -3.3281538 0.10305731 -0.7472507 1.5187943 0.2341905 1.5669851 -0.63792384 0.42532054 -1.3670418 1.6277834 -3.055679 0.046738405 -1.117189 -1.6031332 1.1074971 -1.4478747 -1.4088718 1.4681567 -1.2839206 -0.105385564 0.559915 0.30206016 0.79374987 0.6592509 0.28499216 0.23875508 2.2192862 -2.0809777 -0.62377393 -0.91762406 0.5499602 2.61926 0.031082718 -1.2342354 0.37177113 -0.052137807 -3.1876144 -0.85015696 -0.35246542 0.27020085 -1.0868908 0.3630055 0.78549165 -0.74670166 1.4210135 1.4088235 0.31871837 -1.8008645 0.72050697 0.3688071 1.3660458 0.327099 -0.17064261 0.56694883 0.29830614 0.16197944 1.0249002 0.9733159 0.13667265 0.0970576 -0.6268815 -0.6251103 0.5194597 1.3707542 1.1917162 0.882374 1.6315497 1.6215452 -2.2326717 -1.0443525 1.8716141 0.15855916 2.4176674 0.14660203 1.4170102 -0.72765636 2.2066004 0.38528508 -1.0374897 -1.1368645 -0.3167438 -2.2653027 -1.2823212
all 0.19697198 0.13337435 0.73231184 0.16676857 -1.4268931 -0.13275103 -2.30905 0.81501037 -0.41754204 -0.40953526 1.1701015 -1.6318771 -1.7429372 -0.69875866 0.057168957 0.3230336 0.19317563 1.8012869 -0.6959076 1.5803037 -0.6956533 -0.5443844 -1.2959031 0.9438982 0.3301034 -0.8040746 1.0968401 -1.4136639 -2.2852635 -0.30743456 0.78448856 0.768331 -1.3002356 0.60250133 -0.113156684 -0.8958053 1.5909941 2.4056458 -0.45362574 3.0302618 1.3137308 0.35340074 -0.24785718 -1.4965987 0.62453794 -0.2062653 -1.8881345 -0.98501027 0.6759238 -0.09159278 -1.2648321 -1.0801411 0.14633383 -0.03623402 -0.08545035 1.4640057 0.35145372 -0.9195391 0.33969253 1.4084947 0.8742169 -1.1189582 0.6716499 -1.1901251 -1.1561348 0.5383107 1.7651048 1.1858869 -0.19201699 0.9327389 -0.8818198 0.03075875 -0.3487166 1.0778127 1.9540144 -0.60315853 -1.3041953 -0.411549 -0.82843554 1.5040733 -1.0283883 -1.9357815 -0.062313043 -1.1408343 -0.98719394 1.3970054 1.0810646 1.7254666 0.22269033 -0.2725331 0.6329339 -1.6314193 0.28095558 0.12443279 -0.55382526 2.5651248 0.15357691 -1.2508572 -1.0111969 1.8341877
had -0.5771278 0.081414655 0.16476876 -0.8641792 -1.3856121 0.9714552 -0.78804237 1.0180329 -1.3716094 0.44756666 0.5406527 -0.69045585 0.4306719 0.066060856 -0.13146803 0.01966526 0.91970927 -1.356541 -1.065559 1.6158534 -0.1317828 -1.3996192 -0.4149936 1.2337602 -0.7152665 1.336843 -0.14501518 -0.15902002 -0.1953872 0.48264205 -1.4063731 -2.3143315 0.88055235 1.0281634 0.83723754 0.51336366 -2.4372334 -0.025400374 0.40625614 1.6133139 -0.57191765 0.29400137 -1.581844 0.11612496 -0.32494646 0.42043132 -0.020610651 -1.1299509 1.0635966 0.58879817 -2.3799913 -0.32889658 -0.6030429 0.29671654 -1.0957624 -0.3941832 -0.8198994 -0.4250448 0.12725097 1.9737082 0.118089266 -0.7694544 1.1118131 -0.51939553 -0.5891331 1.1308546 -1.1150682 -0.19575457 -0.5910545 0.6612628 -2.0083086 1.1566477 -1.0636092 -0.9820762 1.5398687 -0.3991622 -0.5134054 0.3256457 -1.3309213 0.63692987 0.4097826 -1.1653209 0.33079067 0.23011157 -0.28518808 -2.6861186 -0.8160178 -1.9037176 -1.4674209 -1.3418279 0.6998622 0.7610096 0.7815441 -0.6517688 3.5774536 -0.43728817 -0.8538262 -2.680382 0.9768386 -2.9625823
be -1.2728404 0.34957385 1.5320628 1.7001942 -0.47351366 -1.4119803 -0.1874129 1.4004399 1.138692 0.061760217 -2.3996694 -3.4406037 0.71033156 -1.2173384 -0.35787275 -1.4985329 -0.067261405 -0.07985374 0.62207556 0.032529354 0.41016802 -0.90437746 -2.252705 -1.2758179 1.663093 -1.2121668 -1.3073007 -0.8170954 -0.9380092 -0.9263512 0.051561587 -1.0395955 1.1055341 -0.61986476 1.9943641 -0.93622726 -1.1485711 0.8929851 -1.203747 -1.8154821 1.5908608 1.126243 -3.3473594 1.3289624 -0.49106672 -0.79738766 0.8246803 2.2105706 -0.685782 1.1059335 -0.5037636 0.27735743 -1.7857696 -0.27086464 1.5807583 -0.17091747 -2.0901694 1.8634558 1.9805819 -0.86361974 0.11314571 0.054233663 -1.6174762 -0.635587 -0.44624248 1.5179453 -1.4048051 -1.6750293 -0.21686414 1.1838778 -2.4416022 0.050732452 1.4624466 -0.1224477 0.8986079 -0.5706579 0.46163857 -0.75030565 -0.9268395 -1.1586387 -0.8936432 0.91195685 -1.0757679 -0.8228942 -0.7856989 0.37011537 1.4272425 -0.44586188 1.1275268 0.08904156 0.09206523 -0.6012554 -0.48001024 0.99837136 -0.9106439 0.2373117 -0.0638623 -1.3750883 -1.2263873 -1.5870974
for 1.3712052 -0.091957144 1.2130725 2.5234125 -1.8379778 -0.9518957 0.4641477 0.80322725 0.7374926 1.6190995 0.33603436 1.2424688 0.6911904 -0.39220846 -0.82532257 0.39259848 0.2513722 0.8166514 0.11512289 -0.37496096 0.7914486 -1.7230949 0.7570727 0.759845 2.1425946 0.33240992 -0.45564455 0.10366376 1.5772562 -1.6713574 -0.93226814 0.31728995 0.78664744 0.75362605 -1.0300814 -2.3898406 2.1701431 0.5547841 -1.4935651 -0.4971366 2.2377174 -0.09207386 1.2146618 -1.7144817 1.879052 0.10906847 -0.42333555 -2.108712 0.5357654 0.46166927 1.3491718 -0.8260875 -0.017399149 -1.6954627 -0.32787403 -0.12680891 1.8268818 1.9272968 0.15457794 -0.47114483 1.0521287 -0.15706563 -0.7603345 -0.82679343 1.2942288 0.20632894 1.374467 1.0407883 -1.3380146 -1.2988614 -0.8105826 -1.7951809 1.0078739 1.1079288 -1.2901919 -3.8363705 -1.0098205 -1.7419567 -2.5783942 0.6668366 0.04880932 1.5607553 0.7718727 1.7424951 0.67114973 -0.45888647 0.15207626 0.54972106 0.43831247 -1.8999798 0.17677759 0.39143687 0.41921404 -1.1169121 -0.27555627 1.6276511 -0.18902613 -1.3053521 0.63996315 -3.7716753
so 0.22410116 -1.1846098 0.35762188 1.8088189 0.85476923 0.48126855 0.62239116 1.8880281 -0.5326215 0.10158784 -0.99658877 1.0888653 -0.2083545 -0.6732889 -0.7846581 -0.2790254 -0.19555238 -0.08892681 0.5872994 -1.0456969 -0.26564574 -1.0331479 -1.6549805 -0.57144225 1.5913578 -1.1536233 -1.1087598 -2.287038 0.067894824 2.1207943 -1.2379606 -0.7766448 -0.8138164 -0.27256677 -1.4086446 0.6680502 -2.6481056 -0.042943586 -0.32284674 0.459928 -0.4107462 -1.8331735 -1.2433753 1.3604325 -0.47734708 -0.9714552 1.0525972 -1.4988295 1.0529504 1.6400576 2.0341613 0.015747037 -0.9432314 1.4229056 0.19237094 -0.023535779 2.4949641 -0.032777898 -0.03809528 -0.44049457 -0.58360356 0.049480382 -2.15718 -0.5729863 -1.6821638 0.032085106 1.5305983 0.55476564 -1.2910018 1.5024234 -1.7697399 1.3235812 -0.41844103 1.1972356 0.22771995 -2.3556669 0.5884283 -2.2432444 0.051533587 -0.3414838 -0.06282419 0.5804672 -0.5300644 0.41443977 -0.6789204 -0.25240758 -0.14475429 -2.6532702 0.25827536 -1.8464398 -0.24673457 0.8699589 -0.99693406 -0.26959655 1.1545773 0.81511176 2.471172 -1.0476644 2.1057196 -0.7541847
very -0.941956 1.1149795 1.5779114 1.9657073 0.66726017 -0.41389248 2.1942873 1.2006027 -2.0181067 0.56935465 -1.3470714 -0.03881176 0.30298337 0.58819497 0.8527458 -3.127186 -0.22148879 -0.5085201 0.0042929295 -0.4297948 -1.8013866 -0.41589606 -0.24162449 1.270954 -0.33483368 -1.8503965 2.3549335 -1.3972455 0.12761968 1.8676921 1.5678622 0.45945755 1.068705 0.19618219 2.197349 1.3162285 -1.6735028 -0.4806393 -0.12395404 -0.25105402 -1.2916592 0.8423667 1.9600427 0.69089174 1.0006377 -1.9226049 -0.16389757 -0.7568115 -1.265554 -0.23754828 1.1859958 -0.37815547 0.8515413 -0.78224826 0.63190794 -0.89170766 -0.22527835 0.1063677 -1.2517686 -0.8407487 -3.226204 -0.28605434 0.37551105 -1.6583096 -0.76355565 -0.25599286 0.7856219 0.04351672 1.6094885 -1.9818465 -0.13220285 1.7486821 -0.07206103 -0.45498306 -1.0585419 -1.1539409 -0.17652246 0.7491111 1.0146629 -2.0026176 -2.564408 0.7432046 -1.1144055 -1.279824 -0.1077615 0.5382286 2.7040188 1.2852672 -1.4072242 -1.4964106 1.7267157 -0.03453586 -1.1828023 1.0431311 0.18157828 1.4594676 -0.0543011 -1.7042923 1.7367072 -0.43862286
not -0.14802887 0.1075381 -0.08675401 2.985292 0.5932183 0.38320938 -1.595213 0.6068648 1.4488496 0.9302545 -0.66084564 1.078657 1.3650911 -1.287253 -1.201302 -0.92461467 -1.5873814 1.0313013 0.29730543 -0.40703645 0.8952658 -1.6363919 -0.92568564 0.7571029 0.19395694 -0.49461842 1.8062549 0.89931166 1.2895967 3.2586458 0.16404873 -1.5330694 1.1911278 -0.5476855 1.6606082 -0.41140935 0.6618938 0.8566677 1.2235953 1.8581054 -1.0371077 -0.4327946 0.7280988 0.8217838 1.3002038 0.67281115 1.4523972 -0.80031043 1.5108852 0.781361 -1.1774521 0.8311734 -0.22555925 1.3001959 -0.04859236 -0.49203086 1.060678 -0.3522611 -1.5830116 -0.23145433 0.7612875 -0.1061715 -1.0288808 0.22132425 -0.78308177 -0.8377299 -0.49865806 -0.35604465 -1.0003625 2.5771456 0.64608204 -1.4328033 -0.9318953 -0.24204436 -0.3600328 1.1846899 -0.53415424 -1.5157962 -1.931249 -0.46802875 -0.58080477 0.7880149 0.021918235 -0.8086937 -1.7132244 -0.79439306 1.3570794 0.65697795 -0.38899094 -0.29441428 -0.19696891 -0.9921266 0.034191187 1.2922168 -1.9985714 1.5828778 -0.045019604 1.579747 -0.67118126 0.18702427
but -0.066828944 -2.4778714 0.45532304 -0.032325458 2.0434546 -0.74820554 0.12529106 1.1517292 0.21491194 -2.0667596 -0.56293195 1.2697505 -0.12217991 -0.37304896 -2.5898204 -1.9244937 0.6205879 -0.76085424 -1.6887991 0.6311865 0.47356963 0.9656381 1.4519409 -1.8568875 0.5692065 1.4360058 0.65724194 0.349467 -2.4403965 -0.7133499 1.0112011 1.5744452 1.9005492 -0.50158656 0.66769624 -0.81425977 0.9492228 0.5788821 0.45521337 1.3265662 -2.114413 -0.65838695 1.0087049 2.3632731 0.7342712 -0.1869228 0.9838579 -0.09626493 -0.18529908 -2.0037763 -2.1144364 0.87756574 0.25351024 -0.24511345 2.1526484 -0.16446336 0.40283036 -0.21033627 0.76327133 -1.4206917 -2.7091033 1.2768513 -1.7177911 0.13464843 -1.6646334 1.7043529 0.8521447 0.58955175 -0.33031383 0.14949049 -2.049685 -0.4998399 0.14177722 1.8287063 1.1362295 0.5218948 -0.719946 0.3705789 -1.2216457 0.7243124 0.10934461 -0.5336165 0.36455357 0.4964086 0.15355806 -1.3067544 0.6670181 -0.49534252 0.6473775 -0.9485371 0.98913395 0.14476852 1.485326 -0.0947096 -0.24837913 1.0802543 0.10496538 -1.1649519 -0.4050042 -0.40837017
this -1.9744157 -0.0783451 1.3587346 1.618677 -1.0136585 0.12539268 -1.0579991 -0.27521858 0.68640935 0.9160536 1.0861804 0.6247876 0.5764793 -0.43438894 -1.7304738 0.30733323 0.40758878 1.3119917 -0.69295543 -0.80731064 -0.9622449 -0.4259615 0.03760468 -0.6850021 -0.54313904 -0.32145837 2.9701748 0.9828016 0.36444208 -0.75396323 -0.7597748 -0.1516044 -0.13730161 1.5072057 2.7428677 1.2024232 -0.6923518 1.6771665 1.0437373 -2.0050836 0.92240834 -0.7256721 -0.8255024 0.96680367 -0.5261802 1.4937987 0.080656506 -0.63233495 2.6271312 -0.54422534 1.7032895 -0.5698548 -1.3713696 -1.5331784 0.88481355 -0.39445463 -0.2724343 -0.6383344 1.6473044 0.37892315 -0.89753705 1.6653461 1.0100024 1.3999368 -0.9061378 0.49034283 -0.035296373 1.6632723 -0.027611881 0.18788762 -0.95034266 0.85683227 0.25251883 -0.33498362 0.8856259 0.09676442 -0.37362254 0.88212615 -1.200892 -0.014416402 0.69408834 -0.7709615 -0.748284 -0.5588537 0.09539819 2.4504206 1.547269 -1.0334884 2.6094801 -3.1620123 0.67424005 1.0986437 0.12196077 -0.7977819 0.0988133 1.1922537 -0.19826195 0.20024681 -0.98374605 -0.8151668
little 0.85757005 1.0045693 -0.9363682 -1.75123 0.716265 0.4768791 0.31071326 0.45446175 -0.92867786 0.85797566 -0.17235005 -1.1687878 -1.3810036 -1.0125343 -0.86235887 0.2870482 -0.12660432 1.4286988 0.2620936 -1.7774186 0.5960849 -0.13817365 -1.4147617 -1.2084731 -1.1648697 0.38861454 2.113843 1.5447915 -0.61316484 1.438871 1.243018 -0.6750132 0.8677941 -0.19197072 0.19332784 -0.51349443 1.3004956 0.4840772 1.8915691 -0.3771473 1.1267312 -0.008508397 1.8370812 -3.7444572 1.1640185 -1.8419429 0.60350394 -0.100708924 3.2037323 -0.80704755 0.23019029 1.1690603 -1.7447699 -2.5150566 0.39451596 -0.12052721 0.7336234 -0.28971836 -0.19936866 2.7027698 0.1332973 0.28938237 -1.7153404 -2.6007757 -2.6786108 -0.7176394 0.22124393 -2.4529476 -1.7726073 0.72326094 0.57250625 -0.32588583 0.12868458 -0.80140215 -0.6183186 -1.4392954 0.8703713 2.1566541 -0.5913529 0.055635 0.8653736 -0.52857 -0.3046676 1.829393 2.640264 -0.9382697 0.00820625 1.9598567 -0.8471023 -1.3602366 -0.31325394 -0.5264965 1.2180028 -0.47611874 -0.03548522 1.6170315 -0.70987225 0.63334084 -0.9269416 2.147786
'i -1.0492854 -0.045115143 -1.2366471 1.222513 0.5097931 -0.22906747 -0.15748593 -0.7724219 -1.1846056 2.6268115 0.9680291 -0.7099819 0.35451928 -2.7739835 -0.82163775 0.1496371 0.08916497 -0.57361966 -2.3799675 0.18551697 2.2060242 0.3686372 0.4619938 0.004379394 0.28066486 0.7363795 1.9351122 -0.77004087 -0.40524632 -0.7279924 0.5186326 -0.047967922 -1.2069043 -1.524986 2.0217943 -0.25427088 -0.35948142 -4.730681 -0.023823667 0.71456426 0.5668124 -2.8919642 -0.9752195 -0.42894363 -1.0858525 0.028348245 -0.38058794 -0.7259391 0.48916948 -1.0379529 2.4512653 -1.3149446 0.7563707 1.4161854 0.63605046 1.499998 -0.8228895 0.62266165 1.730154 -2.4395642 0.38287234 -0.25926957 0.18634622 1.9212065 0.7724456 3.0001738 1.409399 3.644771 1.702886 -0.44674814 -1.4478174 -1.982671 -0.6816694 1.7768642 -0.64354414 0.096011184 -0.87726843 0.025893092 -1.169723 -0.57255584 -0.15784651 -1.4651464 -0.44033656 0.96945775 1.266141 -0.47929883 0.5051044 1.127564 -0.015855856 0.28136903 1.4226294 0.27140635 -0.5519872 1.9167602 0.35164702 0.059381712 1.3059859 0.28915703 -0.25806916 0.7805507
they 0.9238701 -1.6687107 -0.08632061 2.7156177 0.20983832 0.8511056 -0.381985 -0.21251784 -0.86886036 0.60607976 0.9428339 -0.017128725 0.9243234 -1.2068278 1.083684 0.8657197 -2.1075015 2.8868592 0.7159565 -1.0410849 0.6927372 -0.3736768 0.73291004 -0.94523966 -0.36227423 -1.1353351 1.3292873 -0.75685525 0.11619842 -0.29981288 -0.050575446 -0.09967053 -0.60603356 -0.29368168 1.7295793 0.27974954 0.54053026 -3.1079032 0.491599 -1.5485276 0.5478812 1.0958103 -0.9915359 -0.24593946 -1.3150693 1.0840852 -2.3709805 -1.1790466 1.8521757 -1.4107051 0.9006697 0.3223475 -0.44387245 0.42143443 -0.60230887 0.58002174 -1.738769 0.113120325 1.7206366 1.1969699 0.13364965 -0.036545534 0.9400585 0.18558027 -1.4061644 -0.24423969 0.17093231 0.7959581 0.40014005 1.8677837 -0.8479323 -1.2266557 0.93959177 -1.0205464 -1.9486159 0.15429601 -2.4747648 0.58031666 -0.551604 -2.160824 1.7355914 1.8040029 -1.4476186 -0.013422304 -1.0898572 -1.2178752 1.0151098 1.2662089 -0.2405154 -1.5826467 1.2402729 1.132075 -0.33977625 0.32957077 -0.1465108 -0.057635877 0.32216564 1.7264495 -0.3986829 2.5837452
out -1.2137858 -1.4222835 -1.9018304 -1.3276598 0.3374068 -0.33932802 -1.5709128 0.24340314 -0.10457459 0.55573446 -0.491074 0.0035622374 1.8193682 1.9549187 0.2111049 0.38386527 0.40086383 0.3568013 0.25653395 -0.023965675 -0.27383617 -0.56294245 -0.029891642 -1.7026595 0.16396336 0.3679804 0.8262731 -1.9817777 -0.9413342 1.6532011 -0.54916537 -2.6215746 -0.46090025 1.1356103 -1.093589 0.4150466 -1.1745253 0.41224536 -3.1165152 2.221239 0.22979261 0.7223966 -0.43698943 0.6908581 1.7319376 1.6407111 -1.4386503 0.1318988 1.8105935 -0.2527822 1.3417631 2.664802 -0.031571314 1.9060489 -0.56101763 2.4019892 2.2749715 -0.41662496 -0.19162545 -0.31447184 0.4250895 0.48493603 0.147785 1.7253424 -0.8100659 0.4274198 1.6281903 0.5151693 2.1739607 1.1977924 1.4622103 -0.7015445 0.27956668 -1.4922731 0.29828238 -0.1827706 -0.38118917 -2.5607631 0.86854094 0.2189853 0.78532845 0.72887886 -0.62827605 -0.58859223 1.7329679 0.09489885 0.04622404 0.5815136 -1.9559009 -0.2460747 0.73654324 -0.57405657 0.4202452 -1.835088 0.4502471 0.61216205 2.5205908 -1.9843094 -0.5081591 -0.49509
he -2.548285 0.34938294 -0.12792583 -0.21432567 1.4011579 1.0052335 0.46370837 -1.2977908 -0.21461691 1.7591785 0.7722005 1.4538479 -0.3051996 -0.56973356 -0.06481439 0.1660868 -2.0675461 0.69405127 -0.991848 0.14999542 1.4159135 0.8103021 1.1104467 0.03730927 -1.1949073 -1.0094563 -0.6489522 0.23578691 -0.96629953 -0.041457344 1.6167103 -1.4500028 -2.1951213 -1.184284 -0.7799765 -1.0203818 -1.0040929 -2.4336302 0.20659217 -0.6225048 -1.5421672 0.76104486 -0.4216536 0.3228044 -0.08225936 1.0202775 -1.978158 -1.232777 2.7197714 0.02222015 -1.2731043 -0.86434144 -1.4560248 -0.8245841 -0.652835 -1.0630666 0.49216402 2.152314 0.030515427 -1.4011209 -0.04449672 -1.0742998 -0.2778716 1.3608457 -1.6700271 -0.7122629 -1.0799159 2.3165803 1.3124088 0.40621012 -1.8893147 -0.15597624 -0.4940609 -0.8872188 -1.2317882 -1.0459605 -1.6534213 -0.8652782 -1.1084228 -1.2094295 -0.81516683 1.0033737 -1.2815963 -0.22885348 -1.2347718 0.5325978 0.37775856 -0.0070522837 -1.8315367 0.093184754 0.18198475 -0.8444304 -0.13398914 -1.4592239 -1.1987971 0.68325484 1.3043561 1.4890214 -0.26741067 -0.25998312
is -0.9779708 2.3971593 0.60138184 0.6211244 1.714496 -1.4126439 -2.299023 -0.11631293 -0.6341113 1.8211405 0.10988297 -1.1911387 1.562545 0.34763834 2.6054206 -0.6921885 -0.21071309 -1.1615969 0.7689534 -0.41949096 0.89708555 -0.7443973 -0.85078466 -0.5182142 1.1888368 1.7998725 0.36659992 -1.0898697 0.8132644 1.4851924 -1.5571204 0.7439401 -0.6438026 1.0569706 -1.3424548 0.92259413 1.3813398 -0.33005401 0.47134426 -0.061637696 -0.31274936 2.4819353 1.9270065 -0.13943268 -1.0819929 0.49568814 -1.7552569 -0.717295 0.79145455 0.596096 -1.6863117 1.6203084 0.06268515 -1.5274284 1.020764 -1.3206197 -0.8388247 1.1150924 0.50371075 0.46787366 0.0039614025 0.43686363 -0.023642588 1.1493975 -0.33004692 -0.36781108 0.35724366 0.5394285 -1.9106557 0.7720491 -1.8954428 -1.5439258 0.691739 -1.2238632 -0.3984496 0.8371085 0.029936755 -0.42733085 -0.19381316 -0.14956789 -0.14361829 0.21366544 0.2768593 0.7848232 2.4355125 0.8236756 3.8879821 -1.0542887 0.18982945 -1.28123 -0.030676942 0.13953862 -0.23127547 -0.11017811 1.7718887 -0.50465566 -0.44909316 -0.8967333 -0.14978454 -0.48716953
down 0.23676044 -1.170592 -0.44324872 1.3444899 0.759166 0.79603916 0.4502424 2.1184936 -1.444515 -1.9329243 0.5465182 1.6382848 0.98780024 0.9567594 -1.289409 -0.09499954 -0.3197764 0.42041263 0.671777 -0.38413104 0.8815564 -1.0609127 -1.5284867 -1.4453973 0.04671177 1.3191596 1.975131 -0.73859257 -0.11326706 -1.3132057 0.6683376 1.03036 0.050038062 -0.13767183 -0.099168606 0.09954547 0.89184666 0.1907482 0.13029645 -0.66659987 -0.92855036 -1.1773645 -0.5960551 -0.70785475 -0.57718146 0.3648199 -0.7097007 -2.1417673 2.34489 0.34742975 -0.8626537 0.35747972 -1.7294483 -1.4377998 -0.46848714 0.096300654 1.0401378 1.1253198 -1.5163193 0.20029142 0.9587062 1.3181597 -1.1025102 -1.1173499 -0.06663095 1.6557459 -0.5760191 1.1458944 1.5770943 2.0074704 0.5515192 0.79833126 -1.2238445 0.38872448 0.38090637 1.5157526 -1.0285914 -1.3933299 -0.5684547 -1.470705 -0.20970002 -0.25685537 -0.056745473 -0.70454305 -0.49650896 1.1011702 0.57961065 -0.42114326 -2.5350828 0.31471395 0.70885134 -0.57673734 -0.0055083763 0.26173335 0.4753859 0.50899607 0.7445442 -0.9902175 -0.15566984 -1.171463
what -1.3820992 -0.29737017 -0.65410024 1.9865438 -1.8546009 0.21596594 0.111348584 -0.70529294 2.1109352 0.26119325 -0.66786546 -0.75991505 -1.7858522 -1.9613832 -0.28581503 -1.0521864 -0.8837556 -1.0034895 -0.76979107 0.7833942 1.2653035 -1.3209195 -1.6438304 0.44801155 0.3651765 1.3418616 1.5075492 0.5555449 1.725564 0.3739141 0.084185414 -1.8092726 -1.3719043 0.9029306 0.5963082 1.078025 0.6888537 0.9722702 1.5829381 -2.2316678 -1.9251909 -1.2838241 1.3317573 0.1260398 0.5330922 -0.23881462 0.23624921 0.48281384 -0.55404246 -1.8453928 0.19907305 -0.332167 -1.2755076 1.6060473 -0.19600773 1.4268993 2.6520271 0.39935622 0.8459075 -0.7701227 0.6012005 -0.43664765 -0.33450848 0.47609004 0.67320293 -1.5451767 0.47352102 -1.9308455 1.0533303 0.96886206 -1.399037 -2.0734382 0.6295465 1.0944846 -0.11011882 -0.44626248 0.30872613 -0.06903933 -0.25067815 -0.5027482 0.7264491 -1.1927139 -0.19281137 0.7201541 0.20621823 1.2104313 1.2245605 -0.4322422 -0.21931615 0.4498255 1.2416607 -1.5218675 1.0487602 1.2806364 0.20799237 -0.67502624 1.3623672 -0.47586966 0.13672708 0.91470706
up 0.51974493 0.78853524 0.34065807 -1.1104981 -0.42073023 0.7944007 -0.26982436 2.1438937 0.6467964 -0.65838623 0.644942 -0.5481497 1.4324229 -1.7994742 0.2401135 -1.23641 -0.14907846 -1.2324386 0.9637718 1.020236 -0.6666145 1.8557472 -0.09600943 -1.0170816 2.072988 2.1461394 0.124137394 0.2763551 -0.1607841 1.6001413 -1.8563461 -0.43068507 0.732689 0.71683866 1.5287883 -0.14944834 1.8375248 -0.72515076 2.3756242 -1.2227724 -0.3875632 -1.0900671 1.6241215 1.2251194 -0.4940987 1.1932173 -0.5066938 -1.6185284 1.1341896 -1.2060055 -0.12700771 0.9516348 0.2712103 -0.6286964 1.3139173 -0.12399382 1.1641921 0.821077 -0.3944257 -0.78415084 0.68501973 0.44960827 -1.1426694 -2.426132 -1.9067439 1.2477803 3.0110452 1.2379684 0.3903996 -0.28174034 0.3851863 0.511991 -0.23597689 -1.577526 1.3835373 1.1490991 -0.95438224 -2.3750062 0.15195604 -0.76708543 0.21535695 -1.0358613 -0.8464193 0.3926804 -1.9237969 0.29093882 -1.9197268 0.25286543 -2.9048936 -0.73735887 -0.12979752 -1.333012 -2.0118947 -1.7830099 1.4568517 0.3806378 1.9865922 -0.6606982 0.89119434 -0.6064244
one -1.6615546 -2.0056956 -1.9673606 2.4409566 -0.790799 0.66909593 -0.106151864 -0.3441576 -2.1704319 -0.013579186 -1.2047126 0.7245117 -0.51817894 1.3891889 -1.9970788 0.2638135 -2.0825872 -2.5040967 -0.09861718 1.1415756 -1.3216716 -0.5713004 -1.5021499 -0.21993265 0.38354957 1.3707479 1.975022 0.32167754 0.25372306 -1.2829249 -0.35807124 0.10455374 2.203341 1.4735123 0.40358588 -0.60480016 -0.3795612 -0.5403538 0.35803574 1.2986454 1.6410315 -0.8414588 -0.78572845 -0.92861766 -0.6315009 0.046798076 -1.9137937 -1.4589826 -0.9744588 1.5682735 0.25102752 -1.4925659 -0.66941035 -0.9198561 0.45636114 1.8170792 0.9335663 0.912142 1.8854262 0.40885192 -0.42514595 0.60700023 -2.07477 -0.2507959 -2.6851044 -0.074617885 1.73784 0.75050855 -0.59006625 0.16328107 0.12712473 -0.43483654 1.0746367 -0.55420506 -1.3818704 2.0477107 1.0752507 1.8778205 -1.3668449 -2.31119 -0.4021913 0.5206694 -0.3988397 0.6322483 0.87728775 0.1261243 0.20995875 1.710973 0.17216833 -0.74103034 1.6977872 -0.285045 1.6786083 -1.3266543 -0.2686148 -0.6876156 -0.23625803 -0.017766658 1.8750561 -0.4368915
his -1.4542775 -2.2264936 -0.11028502 -2.4225645 -1.8881946 -1.7211108 2.484242 -0.06423455 0.30924287 -2.5740035 1.204101 1.6686987 -0.60890526 2.369462 0.16997394 -0.46896738 1.8492769 0.52146983 1.8911482 3.2420034 1.5934656 0.8122817 -2.2569814 -0.37798345 1.2474197 -0.09813404 -0.9184748 0.21235295 -0.13912806 0.56478494 0.11619718 -0.4523885 -1.9295193 1.5722345 -0.12755391 -0.043971818 -0.63420063 -0.5553698 -0.0024499192 0.6800436 -1.7414595 1.1225597 -0.50955737 -0.52935797 0.97846925 1.4098601 1.3062196 1.0206558 0.7473721 0.116968684 -0.8280191 -3.7010567 1.4655014 -0.3502242 0.20176303 -1.4816297 1.0049547 -1.709584 0.55166775 -0.21497564 -0.9120219 -1.2641774 -1.2925781 0.09003123 -0.2979226 -0.84692085 3.0455155 0.29684573 -1.1121112 -0.023966303 1.6714857 0.8306692 -1.187862 -0.8807334 -1.2219493 0.42322946 -0.83988833 0.6698868 -3.2442322 -2.2366104 -1.7466944 2.2083998 -0.13772702 1.7309119 -0.7566114 0.019257711 -0.4832018 1.9668746 -1.0424771 -0.74034923 0.981078 -1.0779891 -1.5245732 0.88265646 -0.10628436 -0.5421076 -0.61949277 1.705853 -1.1282175 -1.0561793
about -0.305928 0.5910389 -1.8557981 1.9734386 0.6337829 0.55995834 -1.1982269 -0.43201688 -1.1657324 0.3032765 -0.32485697 -1.1793151 1.968138 1.0463924 1.8542136 -0.79291236 2.0874965 -1.363986 0.09582981 -0.81974524 0.23992112 -2.2809894 0.27909967 -1.5977113 -1.3195137 -1.3979778 -1.386783 -1.2723479 -1.3609804 1.4456353 1.2042245 0.21057628 1.9163492 0.40288958 2.2731037 -0.19979413 0.1479222 -1.4822092 0.61998904 -0.48342064 -0.097285025 0.36300963 1.3098141 1.4365435 -0.30928278 -0.040431537 -0.62383765 -0.47807288 -0.996605 0.4115241 -1.3891615 0.28287685 -1.0435681 0.58695203 -0.92682755 -0.12820522 3.3214633 0.5104586 -0.23571311 -0.04631178 1.4466603 1.5961426 -0.04312537 -0.90997565 1.4727095 -1.3572687 1.3563098 1.5393869 -0.20291628 1.0855037 -1.4367822 0.3153106 2.1810198 -0.63626415 -0.9034575 -1.4266708 -0.9084597 -2.1767848 -1.6345953 1.8164909 0.08788648 -0.7712141 -0.69548607 0.088720135 -0.4232414 -1.9141992 -0.39941916 0.96857107 -0.6122927 1.1601269 -0.65717727 -2.0546596 -0.12688224 -0.8649077 0.9300466 -0.17597763 0.45494545 0.6083983 -0.1652133 1.0444835
them -0.98384374 0.07557357 1.3477782 0.40284353 0.6165403 -2.3199058 0.3187818 -0.9274789 0.13690364 0.98950297 0.33099526 0.18202323 -1.4321617 -0.8918874 -2.790769 2.5116963 -0.3365636 -0.86960906 -0.9713524 0.22662063 -1.3023092 -0.5553225 -0.59782946 -2.3722768 0.06595542 2.2528832 -1.1175876 0.92381454 -1.0766426 -1.744104 -1.2317058 0.7180796 -0.34951094 -0.50327533 1.0865419 -1.1332103 -1.8610419 -1.8196902 -0.11020581 0.31570083 0.06628986 0.57178456 0.3530049 0.713283 0.78534704 -0.21434532 -0.34853134 -0.052901797 1.4288383 0.9613658 0.7020186 -2.0156639 0.531791 0.061928075 -0.81703097 1.3400457 0.6003987 -0.06317078 -0.27526048 -1.0707045 -0.7250735 -0.02738702 -2.1421149 0.53311867 0.44017622 0.1570786 -1.1586133 0.12828434 -1.8597058 0.28998354 0.8482623 0.81251025 0.8563119 0.1179741 1.2631962 -0.06158821 1.8841333 -0.8902524 -0.8719658 0.4750871 -0.8861515 -1.3536913 -1.9977498 -1.9277253 -0.5563272 -2.451401 0.7326914 -0.09641928 -0.1588615 -0.93394834 0.46093306 -0.84993523 1.0529535 -1.866355 0.31610167 -0.9268206 2.312404 0.5994229 -0.1730316 0.7665237
like -0.5522734 -0.960863 -1.226487 1.4266062 -0.12962343 0.41442233 0.52552986 -0.7450774 2.2955961 0.4923289 1.1774958 0.42146114 0.77767086 -0.8947696 1.2228551 0.3506879 0.96342343 0.11706517 -0.7009047 -1.1107606 0.08042223 -1.2355585 -1.2435105 -1.44574 1.3815656 -0.83477736 0.9135487 0.96604156 1.8827115 0.45094687 0.5317761 -0.18726228 -0.36803544 -0.18066072 2.1998973 0.4420299 1.4283816 -2.477636 1.0886694 1.9928683 -1.1612839 1.0845203 -0.28211567 -1.5515462 -0.03201827 -0.87347156 -1.902632 -1.086332 -0.300398 -0.2510787 0.33338642 0.9591571 0.25177696 -1.1817255 -1.8331504 -0.7884096 -0.07770857 2.116206 0.23522487 -0.5990965 0.47909874 -1.3310798 -0.95546955 -2.926687 -0.7844136 3.5471697 0.34525853 -1.3997085 0.5419386 -0.592252 0.0547182 -1.2765504 -1.6278733 1.6710472 1.6155707 -1.1980394 0.63129765 -1.9734962 -0.19861916 1.9083493 -0.119816646 1.2012331 -1.7025392 -1.6175033 1.488727 0.048630748 1.0779153 -0.48030108 -2.083836 0.07918905 0.018407347 -0.4610009 -0.3298469 -1.3196552 0.57427496 -0.29304552 0.14840367 0.39878955 -2.0495627 -1.2445751
were -1.1778687 1.0830971 -0.73761475 1.5696045 -2.0762992 -1.4372374 1.9929092 -0.38644487 0.22034693 -1.3093536 -1.4776345 0.24937502 -0.9842404 0.82470876 1.6777248 -1.2854594 0.26114124 1.4690307 0.8942947 1.8201519 0.65995246 -0.3526711 -0.57089067 -0.32173344 -0.26798815 -0.11357834 1.6382635 -0.30243474 -1.2587432 0.622815 0.5867155 0.07633864 0.8083486 0.97901547 0.7700904 -3.4813876 -2.3531458 -1.4237049 2.0221276 1.5874149 0.43720755 -0.83483034 1.2272785 -2.077961 0.09857892 -0.6576189 -2.664333 -1.7822025 2.0604706 3.1450796 0.17271143 1.4598017 -0.00770006 -1.6655681 -1.4744093 0.7257496 0.52543706 -1.2520756 0.65944207 0.58217996 0.39143887 -0.8360274 -0.17964184 0.9841482 2.0839343 0.7583813 -0.87380654 1.1024609 -0.4815567 -0.5596082 -1.2063546 -0.7789146 -0.29582077 -1.1965021 0.4833507 0.055586822 0.40747502 -0.64755774 0.1748248 0.46478772 -1.6843053 0.8629144 0.9372594 -2.1595986 -0.9031348 -2.2008305 -1.5791296 -0.7632248 1.0767922 -0.1331061 -0.43753427 -0.75909853 -0.8573106 0.8816322 2.1935217 -1.022222 -0.072022796 -1.4399418 -0.63385516 -2.814233
herself -0.95579493 1.328603 -2.7336388 -0.7224385 0.4667848 1.009685 -0.76123804 -0.9558258 -1.2104747 -1.3362231 -1.6110438 -0.24136697 -0.63745385 0.58377945 -0.007827412 1.0063498 0.31095225 -0.158093 0.83332926 0.1690806 0.78651476 -0.8796033 -1.3349487 3.4682198 -2.0393243 0.9945712 2.1596377 1.3298632 -0.80926865 0.6244385 0.5303089 0.5431856 -0.3540624 1.0522432 4.1485977 -2.0631027 -1.9107351 0.62620366 -1.3375527 -1.0982759 -0.7622004 1.2214124 -0.45589617 1.3167695 -0.89852506 2.005844 -0.98874915 -1.2400223 1.6299438 0.026629198 -0.89663684 -1.4256656 0.3126388 0.52842236 0.35541034 0.90427804 -0.20853467 0.41141984 0.41386074 1.9310021 -0.31659368 0.8322395 -0.9734535 1.021645 0.6527537 1.3338975 0.07461059 0.36119488 1.2068992 -1.2508699 1.0071037 -0.8309025 -0.3494759 -0.64840126 1.5473605 -1.8679368 1.101922 -0.91954577 -0.047766533 -1.0186062 -1.1423526 0.08853277 -0.8035335 -1.9344736 -0.3518583 0.6558221 0.58291036 0.7121686 -0.56483907 -1.4667664 0.41592002 -0.6124516 0.081032865 -0.504302 -1.0285225 2.1556766 1.5885031 -0.8639426 0.73106235 1.3581359
know -0.5335853 2.13173 -0.94548446 1.8062485 -0.7185165 -0.5584149 0.84015125 -2.1045702 1.4893056 -0.11709798 -0.04685318 1.7756429 0.3435393 0.44257814 -0.54742354 0.16048944 0.9156034 -0.75746524 -0.40677443 -0.57923824 0.7812554 0.7613526 0.35188472 -1.3624015 2.0175593 -0.8889026 -0.62993973 -0.5670806 0.80381083 -0.7135877 0.5661105 -0.93677896 0.7841558 0.2542507 -0.1393765 1.3585253 -1.2030495 -0.9135053 -0.77127707 -1.1171958 -1.3253808 0.7550313 0.4562995 1.1723921 0.00089478836 -1.610445 0.46245748 -1.8928018 0.94735366 0.39909 0.16820109 -0.46393368 -0.28267816 -0.4276914 -0.27121082 1.3112125 0.45882437 0.017996173 0.10477609 0.61996526 0.21828917 1.1880223 0.5907903 -2.147041 -0.4350026 0.85430044 -1.0967245 -2.2428052 -1.1848408 -0.24181065 -0.90364826 -0.22997482 -0.75701725 -0.1746321 0.7800745 -0.82686096 1.3181437 0.2798026 -2.0030825 0.90991104 1.0727181 -0.10720306 -1.3129494 -0.79892987 0.7695025 -0.3284303 1.3876005 0.46793377 0.97460914 -0.40464845 0.17977455 -0.4686917 -0.56631374 -0.90984064 2.1272578 0.2470475 1.2457076 0.21993838 -2.829864 0.85130894
then -2.5034256 -1.6048735 0.13704988 1.7968937 0.4773381 0.5624123 1.2751848 1.9276184 -0.9032515 -0.7233844 -0.5618922 -0.3414724 -1.4215059 0.22776698 0.43352872 -0.74094534 0.4160788 0.13949387 -2.4701328 -0.6993511 -0.88626707 0.2872596 -1.0238771 1.4169679 -0.07936747 2.7255816 -2.11995 0.24390157 1.1271194 -1.1740974 0.41937372 -0.74408007 0.39567256 1.1498591 0.38185742 -1.4221239 0.39711437 -0.45963725 -0.64049125 -1.246179 -2.2711976 -1.4353606 1.6474825 0.4586966 0.11866429 1.7482817 0.15978506 -0.02396142 1.7432184 -0.51998353 -1.5977783 -0.6955418 -0.48710045 -1.3189638 0.6301889 -0.5931462 1.7377926 1.8500855 -0.5041641 -0.9382107 0.13079415 -0.030034184 -0.43330184 1.0494659 -1.3502102 -0.5412019 -0.65626943 0.25882658 -1.0810127 1.240397 0.5741471 -2.3135853 1.2889024 -3.129257 0.93069375 -0.07793296 0.33491805 -1.8151051 0.27733392 -1.6082579 1.7190471 0.58493257 -0.6154241 -0.65361893 1.6389445 -0.6559478 0.31277958 0.6612 0.5690735 0.35939175 -0.44138315 -0.524744 -0.29995573 0.4832522 2.4278948 2.1040542 -0.33989254 -0.1877027 0.11882922 -0.978966
went -1.4092805 1.4858567 0.61583483 0.38441175 -1.7283199 -0.15680768 0.7214849 0.11032915 0.67273015 -0.44229993 1.0869728 -0.75496197 -1.6528957 -0.9717329 -0.9846304 1.4250181 0.47490284 -0.38231674 1.7724218 1.5531784 -2.3476346 0.6365184 -1.8493402 0.74828494 -0.9831049 1.5949818 2.149994 0.5396502 -0.70358354 -0.62178415 0.33564872 -2.232259 -0.22440016 -0.059621498 0.10966711 -0.7217962 0.80158514 -1.4501228 0.5005564 -0.39388895 0.71410453 0.5330133 -1.435455 1.7998941 0.5142644 0.73744655 1.183359 0.4992877 -0.031648908 3.0576048 -1.0141346 0.9482558 1.4057842 -2.1579697 -1.9484972 -0.18119185 -0.06799706 0.60371965 -0.16206685 -0.28345802 -2.182071 1.2689856 -1.7215819 -0.36027756 -0.14917322 -1.0346001 -0.89137036 -0.93016696 -0.2968058 -0.30474386 -2.9987102 0.43666145 -0.23790559 -1.1193832 1.3722972 -1.9369607 -0.8013197 1.2555622 -0.48897463 -0.7315914 -1.3458529 1.073326 -0.13597833 -0.72927654 0.5794328 -1.1979796 1.2893683 0.5929575 0.4065355 -0.41845602 0.89292216 -1.343949 0.16760609 -0.19928464 3.5565734 0.20293956 -0.7579515 -0.571555 0.15997602 -1.3287534
again 0.10823922 -0.7467294 0.24032448 0.5933171 -0.503186 -0.6911527 0.2745434 0.41959596 1.3328782 -0.70252955 0.36455193 1.5664746 -1.894992 0.96781003 -1.7202817 -1.684389 -2.3542457 -0.37546128 1.4335889 -1.5158678 -2.1157868 0.3285 1.0355413 -0.6748486 -0.6634079 0.8609492 0.40888375 0.08018495 0.4731103 -0.6397899 0.6248694 0.59059894 -0.9196265 -1.602374 -0.6661552 1.2499328 1.2721578 -2.681693 1.2737924 0.24448411 -2.21706 -0.41645998 -0.22054958 -1.518245 0.70158446 -0.13320279 0.06561548 -0.25689393 0.4421128 0.6628461 0.08115069 0.67422837 -0.50313425 -1.7938838 -0.49191096 0.31763107 0.83656454 0.83953124 0.45547155 0.7532817 -0.067079656 1.7167164 -2.1982646 -0.26774746 -1.0362294 1.541287 2.0779762 -0.79552865 -1.0739255 1.1519139 -2.5632336 -0.7374697 0.64425874 0.6071059 -0.48248804 1.4442787 0.70349485 -0.6532543 -1.6317959 2.2635357 -1.1017412 0.9230607 0.7423063 0.54783875 -0.41482717 0.6570665 -0.37887555 -0.121145 -0.9946033 -0.33953243 1.2848938 -0.93685406 0.4292148 -0.2588638 -0.16535348 0.40447482 0.6791459 -0.96749717 -0.1701218 -1.18159
would -0.24422997 0.79062474 -1.9008868 0.47901037 -1.807809 -2.5134988 0.21150188 0.5032788 -3.20112 -0.80552596 2.013988 -0.2337002 -0.67505074 0.1637723 0.029486604 -0.21937786 0.7539704 0.79954183 -1.0090885 1.018973 -0.9521074 0.20097564 -0.38653493 -0.44256753 0.3827649 -0.84519076 1.1983598 1.5070397 0.29727283 -0.3376176 0.050572295 -1.4881105 1.2480192 1.1076227 0.026959807 -0.44249046 0.90100545 -0.7023189 0.29641145 -1.8615925 0.7640174 0.28304866 2.1971393 0.91192514 -2.6016142 1.3975062 0.12904352 0.90529996 1.5219892 -0.1894524 -2.5075972 0.4567752 0.1175634 1.5239943 -0.31203565 0.39819536 -1.6406451 -1.9943913 -0.9903746 -2.0128832 0.6845978 0.24973178 -0.26594952 2.1646736 0.1583225 0.6619136 0.8617207 -0.6862546 -1.3909725 0.13836049 0.14187108 -2.942104 0.069704175 -1.4427949 -1.1477046 -1.2678616 -0.9745958 -1.4164321 0.16092733 0.8900505 -1.2874864 -3.0394495 0.066352196 -0.073171444 3.477472 0.050124805 0.7815847 -1.1198708 -1.1215432 0.5836144 1.0143988 0.09357192 -0.57500714 -0.35169524 -0.55442655 1.7873957 -1.0874695 -0.13148743 1.0752465 -1.5047876
no -2.724667 2.3266625 -0.056431748 1.6471226 -0.43167675 -0.8808741 -1.2331835 0.18979318 0.24740109 1.3035882 1.7196211 1.7857499 -1.0803002 1.6451792 1.4032423 -0.3641332 -0.29846773 -0.119213894 0.23829512 -0.87796223 0.1707148 -0.023375018 -0.4260995 -0.49373814 0.57185644 -0.15327688 -0.84363574 2.6838498 -2.136929 1.1794909 0.54342556 -2.0890853 -2.3305416 1.05837 -0.8360679 -1.3966867 1.1413656 2.1995022 -0.95066136 0.16670659 1.3548236 -0.49710146 -0.08855222 -1.2141787 0.23035996 0.66056985 -0.12930532 1.9653149 0.48736674 -0.26601323 -0.6870692 -0.68767434 -0.8618717 -0.029660877 0.62334186 0.945675 1.3474319 1.1188661 -0.2754075 -1.864435 -0.5967358 1.4497575 1.4407027 -0.42635918 -0.6911948 0.9455489 0.6266842 -0.11151487 0.9919687 -0.35861498 -0.8474852 -1.2416801 0.02167838 0.24691191 -1.0216863 1.3782322 0.4983997 -3.0988996 -0.9310468 -2.0477362 -0.27130163 -0.7359735 -0.3981664 1.4693651 -1.0863572 -1.0342747 0.95151687 -0.2578167 2.6242476 -4.273779 -0.7217699 0.4976669 -1.7194964 -0.0557076 -0.6174941 -0.10633977 -0.96855116 1.0971428 0.37090945 1.2844614
have -3.0582547 -1.0262301 0.9053565 2.1578982 -1.6966659 0.942724 -0.75080687 1.9696231 -1.1323572 0.5804855 -1.4056115 -1.1013026 2.1314435 -0.5306665 0.7353795 -0.5496043 -0.62449145 -1.5253922 2.1747909 1.7466896 2.117436 0.31841424 0.17255455 0.53933525 2.4171352 -0.122054145 -1.0651047 -0.1287476 -1.8539267 1.0537599 1.3588825 1.0970881 1.3369567 -0.21951014 -1.4123366 -1.5738816 -0.5867851 -0.6451287 -1.8995342 -1.8182242 0.5496313 1.3316029 -0.6540172 -0.4382591 0.82401985 -0.16765164 1.6374258 0.40541682 -0.83489025 0.21779151 0.96569335 -1.7772297 -2.3492432 0.26214418 0.4217057 -0.5588546 -0.020854397 -0.048865892 1.1985703 1.2498107 0.7681889 -0.5032243 0.26102015 -0.19703586 1.1742113 -0.25442472 -1.5866581 0.01650931 -1.5782988 1.0051007 -2.6908312 -0.886528 1.0064031 0.38008657 0.87539494 1.8076965 0.22636588 0.43524683 -1.1076791 -1.1005131 0.7051533 -2.6909106 -2.697179 -2.0901423 -0.77980644 -0.5218905 -0.62099683 -0.20612322 -2.3981242 0.41429055 2.269285 1.8309954 1.6112591 -0.5863326 -0.68876976 0.6294651 0.56247926 -0.85959816 -1.0181111 -1.2644588
could -1.5432601 0.93332744 -1.2695068 0.3697054 -0.9341453 1.134153 2.0417416 -0.17374064 -0.93722934 -1.4234831 1.4617838 1.8119854 -0.62800086 0.0707883 1.2844304 -0.6702501 -0.103236295 0.62194854 0.38314557 0.90038556 -1.2460706 -0.71592534 0.84298074 1.0106375 0.9499388 1.9370322 0.34334472 0.62983614 1.1149358 1.1584765 -1.2548993 -1.2393706 0.17537998 -1.2350786 1.0136731 1.6127454 -1.2406374 -1.3772147 0.5266403 0.100823455 2.4178462 -0.8352054 0.13805047 0.43207863 -0.14712228 0.8177144 0.735934 -0.7005079 1.1188418 0.41914648 -2.1748838 -1.2146264 0.165611 1.2412871 0.46751583 0.04731565 -0.08652565 -1.1246346 0.49892616 -0.31711066 -0.007303298 0.6428535 0.60682017 -0.71868134 -0.16907687 2.2373118 1.463552 0.5096215 -1.1773825 1.1585779 -1.2110057 -0.71889484 -0.2825533 -1.2887294 0.3179949 -0.5204745 0.7746493 -2.7404385 0.24160534 2.0076053 0.02297373 -0.56893444 -0.6434368 -0.7384718 -0.0043976107 0.0068227393 3.4018068 -1.1313194 -1.0161424 0.3826102 1.5720183 -0.41716924 -0.4094948 -0.027450321 0.047454663 0.6900879 -0.06246682 -0.2919407 0.6487176 -1.1387435
if -0.9689643 -1.7007545 0.10660687 2.1975422 -0.72320426 -0.69260144 -1.4132243 0.7788022 -0.9941921 -0.38067114 -0.9635091 -0.27374533 -0.40784323 -0.2987743 0.41644722 0.00782096 0.47672057 0.7227837 0.41918042 -0.3653895 1.0641792 1.1087978 -1.8253167 -0.93052685 0.3033372 0.5583338 1.0982741 1.7914561 0.010794607 1.6215874 0.3029829 -1.0059915 0.1344622 -0.27698678 -0.92363536 0.86074984 -0.04433091 -1.4341911 -0.10969002 0.692884 0.101240546 0.92232066 0.87059975 0.9439779 0.14067368 1.1344826 2.188847 -0.36729383 -0.7233483 -0.6884492 -1.6173446 -2.5921645 -3.4231412 0.5757612 1.1165571 -0.13325416 0.46552473 1.0018507 -0.0291638 -0.24319205 -3.252791 -0.66436094 1.2612259 -0.4442644 1.0667962 -0.9667413 1.253052 0.064300165 -0.4827407 -0.7933482 -1.3685327 -3.017592 -0.2807339 1.6568506 1.434998 -0.7140941 0.19826022 -2.4294155 1.8758886 0.6799543 0.93477714 0.4050153 0.070939824 1.058246 -0.011650401 0.5472778 0.10511612 -0.7256506 -0.2590085 -0.16092578 2.3461566 -0.65138674 1.4936253 2.0328352 0.5119143 0.029718336 0.09499442 0.58836925 -1.1886407 0.7353419
thought -0.88692755 -1.3473969 -0.8071767 -0.27223554 -1.2476301 -0.23272045 -0.717328 0.14734884 -0.580591 -1.7202861 -0.5615163 -0.3259017 -1.0322559 -1.6167008 0.65463555 -0.7059822 -0.18555516 0.3088194 2.1525555 -0.9677134 0.004484603 -0.4026903 0.31558794 0.72042835 0.22714409 0.2526439 -0.15868855 -0.24567686 -0.42081723 1.4054472 -1.0198725 -0.4097002 -0.5910602 -0.9283903 -1.0138361 1.0231131 -0.65482605 0.37271842 -1.164051 1.0536966 2.3266885 1.9529053 -1.2961727 1.5103847 -0.7741627 0.15730938 1.3962489 -2.9571116 0.43316028 -1.1190125 -0.18561988 0.6233514 -0.20295176 0.3812627 -1.2586086 -0.54826593 1.3849642 0.5245444 -0.06782708 0.07836809 -0.026854185 -0.84682095 -0.41525283 -3.726004 -1.3375795 -1.7976999 -0.68800384 -2.392935 0.22825308 1.1324117 -1.3345717 0.73876685 -0.75738215 -0.03744091 0.7539081 1.0265465 0.33358282 -1.7938675 -0.091462456 -1.5230336 -1.6945443 -1.7012895 0.6985058 -0.6183642 0.46829504 0.45614272 1.0819763 0.6821529 0.11330206 -1.6577953 -0.41999355 -0.21795383 1.744297 1.794664 0.3066782 -0.19615354 0.0050818296 0.17439453 -0.11609505 -2.1144333
when -0.6009393 -1.0382832 0.19302113 -0.737658 -1.3448567 -0.47672808 1.3093127 2.6156316 0.8549806 2.1718252 -0.8813048 0.9354781 -0.34269977 0.5419754 -1.9419919 1.1999749 0.35647234 -1.4223739 -0.5687988 -0.8404259 0.5299775 -2.5420835 -0.82314116 0.52259064 -0.39399162 -1.1928926 -0.08898901 0.15159516 0.90684515 1.3481736 -0.67365885 -0.26726672 2.0062714 1.3662996 -1.4142317 -0.055120282 1.1395426 0.14789794 -0.9737801 0.2826968 1.565372 -1.3378731 1.8927796 0.5144079 2.0840232 0.8520732 0.23172683 -0.37044007 1.3004571 -2.0004206 -1.2479343 -0.22991787 -3.6197588 0.6773253 -1.6942468 -0.094870545 -0.98334056 -0.05795085 0.10087771 1.9437504 -0.8899338 -0.6639447 0.31809592 -1.8940228 -2.0145702 0.99015856 -0.11365122 -0.500972 1.598133 0.56145906 -0.9961635 -0.48322457 0.7217465 -0.1803281 -1.6854174 1.0251399 0.23826894 1.2447062 0.6606165 0.69663155 1.2184023 1.4662124 -0.21133742 -0.5798289 0.30937284 -1.0687126 -0.7345507 0.33718672 0.39349598 -1.0889901 0.74624544 -2.5175502 2.1321309 0.014025343 0.01851491 1.2437778 2.1908371 -1.6394886 -2.773692 -2.3776615
do -1.3030282 0.5787108 0.6786279 -0.615933 -0.1384172 -1.855556 -1.6352179 1.2826844 -0.6076645 1.0890248 -0.6402516 0.6950374 -0.6270855 0.5649682 0.22652602 1.8582531 0.46030957 -1.8337977 -0.42366672 2.5305574 -0.60043705 -0.18097448 -0.7564193 -0.26826432 -0.20043573 0.24279663 -0.219513 1.0152657 0.99387884 1.8666184 -0.77410764 -0.42973444 -0.73328155 0.33300385 -1.7698478 -2.1525304 -0.6766005 1.3393769 1.3521059 -0.76243585 0.8036736 1.1723928 -0.9537268 2.882806 -0.31756118 -0.5433883 -2.1404133 -0.60141766 -0.68257636 2.4653926 0.9844676 1.074552 0.26097313 0.011131613 0.3325995 -0.42762995 0.7503876 1.354881 0.16737764 -0.69579065 -0.60160977 0.68760514 -0.2541643 -0.26406983 -1.0368782 -0.871031 1.3991781 -0.013772535 -1.5080634 -0.7265998 -2.4432209 -2.5501173 0.9420741 0.3166323 0.021440495 0.24767853 -0.47334906 -0.16574822 -1.9387817 0.08733067 0.2304985 -2.824267 -0.44007093 -2.0701368 0.25369772 0.3378796 -0.589479 0.46822968 -0.38192582 -0.40096745 2.9094396 -1.041273 -0.5643051 0.8528098 1.2122786 -0.09554086 -0.007054532 -1.3088065 -1.3395265 -0.86828953
or -2.2690148 -0.83035433 0.6617761 -0.82254183 -0.47746325 -1.7909188 1.3117374 -1.0524188 -1.621444 0.27032232 0.07291063 0.5918725 2.1884873 -1.2079383 -0.8791488 1.647574 -0.7649303 -1.3713561 -0.79843235 1.2094214 -0.28707585 0.58501303 0.67688733 -1.3879837 -0.17004725 -0.4054069 -1.3675174 -0.58384126 0.6504326 0.634355 0.8033798 0.8392982 -1.8735362 0.1590097 1.9496521 2.904751 -0.7008413 1.1331333 2.0389092 2.1254458 1.2581469 -1.1671934 0.99478054 -1.1209978 0.32425252 -0.04668121 -0.28945294 1.0365913 1.8489639 -0.58919 0.59736145 1.1910769 -0.7149229 -1.8857696 -0.23972197 0.81201386 -1.4404386 0.3610007 0.5363175 -1.0037073 -2.4873366 -1.4195207 0.6632158 -3.1214662 -0.2574267 1.3640988 1.0063803 -0.46361825 -1.6031954 -1.7160033 -1.4667962 0.4403834 0.75160134 -0.93651295 0.8986257 1.2201122 0.22485028 -1.1933804 -2.9860733 1.4286641 -0.15919772 0.90323484 0.9428555 0.6608551 0.6444408 -1.8178129 -0.33190244 -1.660894 -1.9153514 0.26827314 1.9956065 0.53464836 0.16998878 -0.11932312 0.86643225 0.10006242 -1.2616366 -0.15429865 -0.09086263 0.28351372
there -2.9593422 -0.9406632 -0.6741886 3.1514833 -0.11721686 -1.4176823 -1.3772019 0.99061054 -1.0213333 0.10976645 -0.036149643 -0.28489944 -1.6431346 -1.809694 -0.55195624 1.9430274 -1.1466413 1.497002 1.0082065 -0.030805238 0.74401915 -0.7614905 1.5942116 0.3266063 0.99649894 0.7253697 0.79477096 -0.20066269 -1.8779179 1.4267529 1.0976542 1.5881368 -0.044466347 -0.21317625 1.0815581 0.47812182 -1.3698964 1.4998226 -0.029461028 -1.9678329 1.344343 -0.9892201 1.2338243 -0.26007208 1.0732306 -1.6027876 -0.13071255 -1.1683123 1.0668108 -0.01874606 -1.6648858 0.66705066 -1.4339138 0.6302751 0.8957929 1.8495682 -0.13530208 0.7169351 0.3434647 -0.62444943 -3.0200279 -1.3903157 -0.12071269 1.9682151 1.6904035 0.9126209 0.4235623 0.12159321 0.3043808 0.9907419 0.34090662 -0.54346174 0.09325913 -0.5660012 0.5192802 -1.3458437 -2.1286025 2.0914395 -0.66756517 -0.0814078 -0.3236965 -1.4011484 -2.5090864 2.1029198 -1.2502468 -0.10947086 0.7800341 -0.12504493 -1.246944 1.2065495 0.38518918 -0.518282 -0.15421271 0.37387252 -2.8040493 -0.049423564 -2.010821 0.9170768 0.44597453 -0.8926436
time 0.35246274 0.8837002 -0.52382106 0.1875671 -0.66091716 -0.52238625 -1.6232177 -0.45382458 -0.6416623 -0.8918038 1.5558158 1.4635357 -0.13367628 -1.5920595 -1.6434281 0.4828404 0.66769606 -0.2889084 -0.31234917 -0.055844143 -0.845968 -0.967843 -1.4956471 0.1648315 2.3843808 2.022506 -1.7635441 1.1207621 -1.4774247 1.1498989 -0.3243734 -0.81092525 0.8676234 0.99511486 0.9907509 -1.3833281 -1.0518087 -0.971663 0.30700803 -0.18654673 -0.48910794 -1.1265314 -0.81885767 0.38049 -1.0832171 -0.46463007 -1.6104028 0.191088 0.24470687 -0.92514527 -0.7796221 -1.3810266 -1.6288085 -0.16527563 0.40646878 0.91305095 0.38315448 0.5305594 -0.23294568 0.51558036 -1.8881001 1.2042626 0.67536724 -0.4139302 0.58757615 -1.1190454 1.923478 0.6679636 1.0703306 0.41216233 -0.50910634 0.30919233 1.1561031 1.4836826 0.73776066 -2.111771 2.0643857 -0.91925526 0.24015571 -0.8271636 -1.1257285 -1.5153716 0.34612688 0.36540958 0.32353467 -0.6129161 2.5550873 2.2344375 0.2519825 -0.14265668 0.24877559 0.91664183 -0.5288358 -0.6382202 1.0787009 -1.6362116 -1.5723349 -0.30103505 -0.059289057 -0.99677074
into -0.72034293 -1.4822868 1.054775 -0.8474306 -0.07684723 -1.8539664 -0.7343535 0.5711161 1.7120996 0.21894664 4.0901437 0.7161432 2.5162005 -0.97263503 0.007097693 -2.0653048 -0.83102995 -1.1753272 0.0013991633 1.4684722 -1.189354 -0.6617576 2.2441359 0.26807085 0.9903722 1.8886775 0.031385485 0.1440579 3.0941768 -0.6065484 0.5799966 0.71221733 -1.573989 4.0575476 -0.53411245 -1.7370757 0.68117267 -0.9061317 1.286209 0.5149928 0.32726714 -0.6642087 -0.84357667 -0.5063563 -0.9851342 -0.61812156 1.0669565 -0.5442537 -0.7598019 -0.094150074 -1.6399841 0.5574825 -2.199291 -1.0964786 -1.0740772 0.7697489 1.1736097 -1.8081903 1.2401115 1.0459096 -0.21361496 0.60595 -2.1239276 -1.2674862 -1.0093764 2.8897083 -0.28592777 0.9096786 2.0742435 1.5579076 1.4410812 -1.3804005 0.8972709 -1.6273878 0.942135 -0.5362382 0.25634235 -1.1121459 0.96636486 -0.041328482 0.87716824 -0.27724025 1.9063519 -0.42266974 0.88380057 -1.0504327 -0.40353578 -0.3864443 -2.2299354 -0.18555489 -1.2330065 0.34448153 -2.666006 -0.92702526 0.4397527 1.984197 -0.38813782 -1.2448419 -1.8204889 0.33822677
see -0.36386046 0.5857282 0.69948655 1.1564196 -0.5537379 -0.12966944 0.5895566 -0.9496931 -0.23543034 0.955692 2.4702394 1.3839288 1.6256276 1.3527455 -1.7632089 0.0048245066 0.97156835 -1.4599795 0.43531147 -1.0161835 0.07360621 -0.47788695 -0.16655856 -0.82092166 1.9523771 -1.0531877 1.6019694 -0.051284064 0.05846958 1.651659 0.9578782 0.58760756 1.6283301 0.83900374 -0.92761415 -0.3482424 0.17092307 -0.91179883 -0.35506132 0.79325175 -0.19176942 1.2534742 -0.019272562 2.3083277 0.87496 2.004923 -1.4138236 -0.17765582 -1.0314993 2.6175528 -0.42022622 0.48423907 0.104910575 0.067310095 0.531641 0.5409789 -1.101201 1.2439638 -0.09578369 -1.5660423 1.6120927 -0.5222383 0.5938571 -0.93401724 -1.5992689 0.029262077 -0.51656 0.88085407 -2.8729517 0.36228964 -1.6223701 0.35840353 -0.046320308 -0.61262965 3.3331678 -1.6094368 0.6579147 -1.2082151 -0.43073788 -0.02432686 -2.0133457 -0.15432581 0.26638994 -0.5662508 -0.62666124 -0.6738019 -0.06083033 0.5419278 1.2643963 0.46345067 1.1584963 -0.6816162 0.10204235 -0.37519494 0.63865024 1.663917 0.87998086 0.4891666 -0.47582826 -1.1917738
me -0.5638134 -0.78192765 1.6045101 0.8266779 1.5097367 -0.1448016 0.43383664 -0.7808504 1.067972 -0.37997103 2.0424354 0.9243116 -1.923986 2.1203616 -0.60308325 0.77179164 -1.7080884 0.75507987 0.50610435 0.24017705 1.1064352 -1.4795859 0.36156994 0.37604243 2.6245375 -0.19374958 -1.322596 1.3300197 -3.0073678 1.380617 -0.53190047 -1.7923468 -0.91981465 0.05373144 0.32568276 0.79488105 -1.9343989 -1.4568114 1.0609556 -1.1798576 0.23303498 0.34057963 0.8393745 -1.0237477 0.23736393 0.6944147 -0.64984375 1.028696 -0.6791622 1.2168505 -2.6185977 -0.3087199 1.7968909 0.18340863 1.393306 0.6338799 1.0416695 -1.6597917 0.54620695 0.4361669 1.5021443 1.265961 -1.1776593 -0.5519873 -0.49840954 -1.212252 0.5098368 1.087901 0.489543 0.4356153 -0.9957115 0.697156 1.7035365 -0.11895384 1.2521935 2.0052059 0.5071772 0.012963258 -0.45379597 -0.8665277 -0.38054928 0.6168747 0.74135315 -0.6242663 1.1330025 0.10860095 1.3040595 1.1345918 -2.1581001 -0.24600567 2.6607187 -0.64041394 1.7632682 -1.6969694 -0.27577952 1.6920388 1.6357025 -1.0451735 0.3929625 1.0270315
queen -0.5849692 1.8396143 -0.75874525 1.7442676 -0.043464195 0.6154311 -0.5934219 -0.34590632 -0.31780174 0.96961766 -0.10632349 -0.4886645 -0.01202596 1.0438122 -0.948919 -0.3421107 -1.5779693 -1.4512064 -1.7188123 -0.38014638 -1.010804 -0.62090456 -0.45771426 0.3407875 1.4446434 2.0686464 -0.54381084 0.5686594 -0.4538789 -0.8206297 -0.9962765 -1.6130915 1.3813283 0.27550727 0.14968948 -0.1517929 -3.5447707 -1.1939149 -2.1690698 -2.9148922 -0.73184156 0.76386505 -0.88499314 -0.3754068 -0.28830412 1.1116688 -0.29189205 1.0311282 1.6004087 0.27394772 -0.8208729 1.9032112 1.1729829 0.35244974 0.14709008 1.7119515 1.1078104 0.6450372 1.9658529 -0.18489748 -2.0127068 -1.5294766 -0.0893859 1.333198 -0.3294486 0.34071612 0.341128 0.69864184 -0.19814683 0.91727215 -0.21393757 -0.8829076 0.24439287 1.8684427 0.27730614 1.2696867 -0.5378505 -0.88420737 1.2531078 -1.629423 -2.336885 1.0526929 0.04065815 0.1732144 -0.22683707 -0.2838533 -0.17951153 1.4372642 -0.68677807 -1.252491 -0.38349095 -1.0310725 0.93651783 0.3375868 0.8714881 1.9003068 -0.98523265 1.4447777 0.13066496 -1.0050254
off -0.57227147 -0.7303887 -0.5639357 0.31987983 0.27190593 -0.3771599 0.2433983 0.36849433 -0.8136853 -2.0922573 2.210321 -0.42087248 0.06455691 -1.5168313 -0.60885125 -2.4265478 -1.9015298 0.27203506 -0.7623926 -0.6224931 -0.4542438 -0.6629819 -0.84121215 2.033575 0.38572627 0.43955415 -0.23730813 0.6531057 0.61624616 1.6197587 -0.17554112 -0.12923074 0.19704321 -0.99367386 -0.4769319 -0.15176022 -0.024976358 0.07700142 -0.6048402 0.05631258 -0.9326957 -1.5409734 -1.0132307 0.8617139 -0.62929845 0.76579636 -1.7041986 -1.0368648 0.23682606 1.0266572 -0.39381906 -1.0306292 -1.8823657 0.58326507 1.3045166 1.1061374 1.2219018 2.5116863 0.6946082 -0.6678585 -2.159064 -0.8120053 -0.80454135 1.0197734 -3.2567 -0.52328765 0.5474758 1.3405148 1.9658338 -0.4032643 -0.43817598 -0.14595994 1.046392 0.12668532 -1.5184443 -2.1558573 -2.6840632 0.8927745 0.8911705 1.2753768 -1.1333224 -2.786962 0.5759478 -1.9759884 0.31075096 2.7045236 -2.799773 1.6852751 0.23301503 0.23127276 -1.2564217 -0.45556888 -1.2940497 -0.6617903 0.8399507 -1.7843603 1.2335824 -0.0070399563 0.19217764 0.2470226
did 0.73233026 0.93271196 -2.9502811 0.9105652 -3.3551967 -0.5775765 -0.028511591 1.1710467 0.060346384 -0.13521524 -1.5695465 0.1196826 -0.36564377 -0.871125 0.45754418 -0.36539462 1.6103958 -0.45469397 0.17917679 -1.2065094 -0.52746373 -0.38847202 1.1670868 2.094177 1.7149278 -0.23798285 0.38682026 1.1053462 0.35969225 -0.20544566 -1.1626158 -1.0523194 -1.3024116 0.8596687 -0.039283846 -0.07253706 -1.4793754 -0.64805394 2.1675014 -1.6491774 0.4704864 0.107885756 2.2664957 0.68990195 -1.9194905 0.4427175 -0.053737804 -0.5656583 -0.8060678 1.9796538 -0.4017586 0.87143123 1.0410949 0.4808118 -1.5316371 2.4850798 -1.0624264 -1.5338615 0.32789865 -0.15316346 -0.44360366 0.99258107 -0.004358473 0.62429273 -0.12466992 -0.5758166 1.9497191 2.100603 -0.46506742 -0.6223339 -0.6112519 -2.2558374 -0.29539502 -0.3852002 0.18056782 -0.27192664 -2.4604943 -0.1699496 0.063519225 0.94683295 -1.4358407 -0.6265172 -1.0046233 -1.6861895 1.8848003 -0.31143656 1.7741343 -2.3765874 0.5066497 -1.1439794 0.8698125 -1.4506699 0.061541986 -0.553966 1.1112432 -0.5175697 -0.6031353 -0.8959093 -3.0020387 -0.85815156
your -0.33063263 -1.5026422 -0.93350065 -1.1606638 -2.1413567 -2.824561 0.63692576 -1.3357995 -0.27279675 -0.10641178 1.7922361 -1.2151008 0.48337215 1.8399755 -1.4006932 0.5733444 1.8427342 1.9911326 -0.88486964 0.6393868 1.6159202 -1.1147091 2.697637 0.40825188 -2.3010538 -2.2937543 -0.65213567 -1.4496474 -4.198106 0.2051973 -0.7107882 0.5054097 -1.8995727 0.7411816 1.0147481 0.65330464 0.44155014 -0.211968 -1.7753212 1.9766836 -0.7054386 -0.80167675 -1.9228328 1.066309 0.39381292 2.4826272 1.5497228 2.2142973 0.70450175 -0.9524789 0.44499722 -0.40289527 -0.60422385 -0.46019185 -0.6745385 -2.063363 2.6298866 1.1265606 0.13264164 -2.3311956 1.8862987 2.8911593 0.8834478 0.16474052 -1.3801227 -0.40695077 -0.8971051 -0.3501915 -1.3430265 -1.1509681 -0.19290936 1.586381 0.9936938 0.1816704 -1.9008355 1.704231 -1.2968153 3.0245802 -1.9966235 -0.13186535 -1.58931 -2.2140288 -2.7423627 1.3274506 1.6410474 1.9341251 -0.18681301 0.44513875 1.2602897 -1.006352 1.747774 -0.13201328 -1.1955504 1.5781957 1.12485 -0.66130483 -0.45290998 1.6977495 -1.4784294 -1.161053
king 0.35878697 1.2819101 0.12245736 -0.37112498 -0.71587664 1.3271774 -0.88472277 -1.4728029 0.17262211 -0.4264306 0.21102893 0.32291618 1.3399404 -0.42122707 -2.0663254 -0.26806247 -1.4745752 0.67608047 -1.2690827 0.30808452 -0.5481532 0.09233132 -1.5345901 -0.21239324 0.19228671 -0.32420433 -0.033550538 2.1635435 1.9505874 -1.3761826 1.7812283 -1.9049746 -1.59926 1.7958649 0.6333992 -0.2859827 -0.035635065 -1.0585058 0.54023117 -1.8441747 -0.9320949 0.86830616 0.0019399846 1.1334798 0.050952796 -0.31569737 1.6222389 -0.5713353 0.4338152 -2.1894965 -1.0857189 -0.1833646 0.56411165 -0.85588783 -1.7756133 0.106123894 0.4435528 2.102834 0.5303089 0.03792858 0.60034674 -2.927973 0.109844156 1.2685877 0.045398045 0.27887315 0.68428016 0.31222385 -0.8616872 -0.6659359 -1.6139339 -1.7951248 1.0476775 1.1092131 1.1894705 0.19641519 -0.11819599 -0.5976714 0.43006808 -1.4079219 -3.4585822 0.45538378 0.87119925 1.2029188 1.8222468 -0.27659938 0.4628751 3.8077826 -2.928591 0.5580826 -0.34494194 -0.91183615 -0.1572688 -0.0067489627 -0.9512787 0.60235643 0.17086656 0.6560314 -1.6213696 0.55817735
began -1.2726767 1.213612 -1.7760979 -1.1071622 0.4313305 0.1578731 0.25326347 0.8058321 -0.5635577 -1.9601082 -1.0363678 -0.9544864 -0.1422173 2.0028691 -1.4942278 1.1381173 -1.6965203 -0.24254285 1.8562514 1.148383 -2.4823399 -1.6373749 1.0466212 0.78888905 -0.75657326 -0.35724878 1.8773291 0.9245849 -0.05457868 2.953852 -2.6707609 2.2343786 1.9820156 1.226763 -0.83814585 -0.87468344 1.4317554 -1.9699283 0.4246982 0.13630061 1.6307635 0.72712535 1.6704133 -0.027971936 -0.8265003 0.29678273 0.5542345 0.14168319 -1.069628 0.047411643 -0.7864754 -0.4099075 0.5224989 -1.425374 -1.8059359 0.57187957 0.6473759 2.2612286 -1.3250815 0.54125535 -2.054353 0.8736375 -1.8429214 0.52991897 -0.5480474 1.0592984 0.31045952 0.23448133 1.4764409 -0.32962954 1.4871587 0.056176182 0.092413194 -1.7111459 0.6991437 -1.6034049 -0.99144346 1.748922 -0.8517523 1.2371727 -0.8297903 -0.8413359 0.98581696 -2.4851253 -1.6714014 -2.6749327 -0.091107406 0.03691646 -0.7212831 -1.633063 -0.92296344 -1.851815 0.5448479 2.2099898 0.5982984 -0.77038896 1.5771154 -1.3474456 -0.9271463 -1.620728
by -0.8461538 -1.0626416 -0.0049284557 0.6229085 -0.20503595 1.1584872 1.2410033 -0.23859932 1.5273896 -2.1737292 2.6580951 -1.535593 0.3780686 0.19350816 1.0045981 -2.9356623 0.15268277 -2.241102 0.7757155 -0.49633163 0.39295128 -1.280037 -0.060947098 -1.0939091 -0.38599136 -0.17855637 0.36712885 -0.38632074 0.16653892 -0.14609356 0.4065467 1.0749717 0.43251067 -1.802898 0.80543685 -2.1024325 2.5077817 -1.4163882 -0.9597643 -0.016995143 0.9197423 -1.7788036 -0.20739456 -0.6039801 0.23889813 -0.14866161 -0.7343244 0.44613448 1.3003557 -1.4162031 -2.1836298 2.5702426 0.27632296 1.1628437 -1.1143403 1.6922054 -1.4771657 1.2594169 1.9969916 3.0398746 -0.071062565 -0.27373356 -0.6150461 1.0484328 -0.9764334 2.3890586 0.48281243 -0.92102164 -0.2370136 0.533355 1.8583728 -0.32558355 0.70550925 2.0223498 -1.5570785 -3.3878312 0.018736053 -0.99435383 0.58356714 -1.8099046 1.3710685 0.30198604 1.6711904 -0.55870664 0.16273656 0.6373815 -0.5804045 0.6799648 0.51374686 0.19476485 -0.48605356 -0.5433573 -0.51152635 0.10987755 1.5181197 0.024659129 0.6967422 -0.69293827 0.018132122 -2.4184086
its -2.7900872 -0.00795445 -2.0449505 -1.7401894 1.0739762 -1.3003788 0.1680006 -0.3887132 1.4578108 0.4285392 -0.45823473 -0.78153163 0.4317296 2.7319257 -1.2229631 -0.99491274 0.6316044 -1.4027065 0.15125693 -0.46366355 2.466051 -1.3313044 0.16712147 0.37508255 -2.694184 -1.0518934 -0.5666218 -0.050054226 0.2749815 2.4384778 1.5312457 -0.47920874 -0.8156632 0.3834782 -1.0584707 0.10093636 0.19725168 -2.0631018 -0.47282207 -0.71367043 -0.33223954 0.47837132 -0.41956174 -0.8108333 0.48825955 0.49998608 0.8494339 -1.102139 1.818836 -0.62730974 -1.2410207 -2.7515671 1.4244086 -1.4775908 2.388059 -1.7873875 1.1750467 -1.4753892 0.44109333 -0.63782233 -0.15858957 1.319413 -2.2318888 0.68683267 -1.8806665 0.9639002 0.29056612 -1.0791286 0.07743951 -1.8712279 0.85614026 1.703852 -0.14918059 1.2434726 0.38045412 -1.3811737 -0.44723856 -0.20437264 -2.382416 -1.4162823 1.8206108 -0.3599603 -0.59689796 0.56390285 -2.1566172 0.74860346 -2.4894588 3.4236548 1.321962 0.10967928 1.2455362 -0.3380418 -2.57549 -0.61865175 0.33999988 -1.3947773 -0.7081919 -1.0669945 1.4768697 1.1534233
'and 0.32712635 3.321381 0.101450235 -0.38203222 -0.69988304 0.8843281 1.2952129 0.2791844 0.34697726 -1.0709853 -1.7465076 1.6580651 -0.60996747 -1.0759294 -2.645406 1.6712602 0.31043723 0.12942523 -2.4200308 -3.1928535 -0.07092885 0.7027429 0.07060824 -0.7691858 0.074537806 -2.0310276 1.2480798 2.1027808 -0.21107917 -0.15273608 0.333305 -2.123304 -1.1935905 -0.53562397 2.090094 1.6694018 0.7725882 -1.377587 -0.34317318 2.4312901 0.26405033 0.8402114 -1.4149317 -0.14956693 -0.8393181 0.7026584 -2.2726579 -0.42651162 0.6025093 0.2670356 -1.1373906 0.08102718 0.91894656 0.97606206 0.8615251 1.1970339 -1.1825938 -0.45169902 0.31729582 0.58801407 -0.92839897 0.61073565 0.8654425 0.375289 -0.66539603 -1.0325912 -0.17465372 0.36156344 0.2228559 -1.1073266 -0.19274887 -0.87377524 0.27778596 -1.4047575 1.7424827 -1.2236627 -2.0205538 0.5355964 -1.0990517 -0.79692924 -0.03571055 -0.008136255 0.1719005 0.5604007 2.8497791 -0.113815136 -0.50318694 -1.8773631 -0.010589741 0.51773673 0.35813594 1.188012 0.4309751 -1.3011038 1.1981021 0.37441972 -0.12484412 -0.019752238 0.2962219 -0.3836568
way 0.56417966 -1.4106413 -0.4950412 -0.18305285 -1.1732954 -1.2130777 0.48921567 -0.7196512 0.48180142 0.7022695 0.29330993 0.749332 1.324439 0.8157615 1.5696901 0.56015193 -0.06721001 -1.6497651 -2.0021315 -1.6804099 -1.430265 -2.5433187 -1.0976155 -1.5734707 -0.47022673 1.5571133 -1.0881002 1.6583117 -0.94825184 1.1177027 0.88629633 1.0790251 -0.6383981 0.5323814 2.5751362 -0.44454145 -2.241533 0.8561969 -0.7241702 1.0461285 0.078710146 -0.69793975 0.51882946 -1.2570064 -1.0253416 -0.08169819 0.28296313 -1.2005781 -0.15031599 1.3943833 0.37830648 0.51058376 -1.0892639 0.58525664 0.5996055 -1.0912834 0.054685403 -1.0674896 -0.015736368 0.8587359 -2.912523 -0.6159146 -1.2755294 1.6213164 -1.3942881 2.3179598 0.6791448 -0.021015985 -0.8557993 -0.34090462 0.78134674 -1.2811038 0.44147125 1.4038916 1.7343189 0.65492994 0.8520941 -0.068414964 0.17471142 0.3766643 0.80411327 -1.2785207 -0.13924979 -1.72602 0.19111222 0.60971236 1.8002076 2.1221275 -0.04704291 0.13235402 -0.2701276 1.2780094 -0.47927436 1.7267658 -0.7830486 -0.21475115 0.5891903 -0.95179766 0.052628778 -1.4522573
an -2.6056128 -0.21889383 -4.256572 0.5936746 0.0331061 -2.0915394 -0.90581805 2.3503494 -2.0445278 1.8897307 0.40340966 0.16325569 0.20674886 0.09429679 -0.6334182 0.16059181 1.6385391 0.8913717 0.5100369 -0.2745539 -0.7224388 2.0153084 0.3306301 1.5162041 1.6826335 -0.8246785 -0.009853393 3.1112258 -0.47356483 -2.9282336 -2.0684497 -0.3164555 0.37540826 1.3902245 -2.1071832 0.6534694 -0.95220816 -1.5213128 -0.10204196 0.7551114 0.47551468 -0.12487272 1.3784529 1.3756421 -0.6938417 0.80099016 0.13157645 1.7227718 -1.0108366 2.2033405 2.7396894 0.1050801 0.12102365 -2.7459354 0.13222809 -1.0840166 1.7592689 -0.6142819 0.35198227 0.8297345 -0.16575018 1.2862235 -2.616461 -0.20217198 -2.4321702 1.8285428 -0.65503603 0.0049141156 0.17558236 -0.23597439 0.11107381 2.0987833 -0.40430227 1.0654744 -2.922536 -0.8324772 0.11877197 -1.0704802 0.80148935 -1.348306 -1.2274845 -0.072764345 -1.8228085 1.154956 -1.8691568 1.1748312 1.2992393 0.063483424 -0.17847285 1.4961983 1.1174899 -1.4592369 0.74908566 -1.7053628 1.5082661 0.047512904 -1.3749266 1.7164598 -0.40922043 -1.6318142
mock 1.3862689 1.09873 1.3128982 3.1653085 1.4497483 0.8966687 -2.3201835 1.1969532 -0.61598486 -0.66684866 -1.4398419 -0.16883497 -0.50508493 -1.5962555 0.045949385 1.410733 -2.2990265 0.88466996 -0.4706355 1.6608238 -0.55778223 -1.086332 -0.68399376 0.5534303 -0.8311228 0.36083606 1.3048832 0.9256403 2.000969 -0.95541906 -0.75766623 -0.7639199 -0.08860653 -0.18185127 -0.04437956 2.0280344 0.06743775 0.08998869 -0.30130026 -1.4785649 0.42479777 0.23274574 0.22269936 0.24585898 -0.7708779 -0.35610428 -0.8806437 0.9619215 1.8825834 0.56123596 -0.9896514 1.3989687 1.3469663 0.16510065 -1.3471391 -0.19027305 0.01333059 0.017433148 0.82317173 0.33901536 -1.1609136 -0.31092638 0.20517288 -2.4749713 -1.2095988 0.94975364 2.4604168 1.7607629 -0.6993471 -1.5100733 1.1151749 -1.1236026 1.1977578 0.9552885 -1.1273923 0.25839758 -0.9957929 -1.3727932 0.5669903 -2.6676533 -2.0823767 -2.3249197 -0.89791006 0.9859634 1.076939 0.4201073 0.88964224 0.94433695 -1.1377053 0.059144538 -0.16844839 -1.5539982 1.0531807 1.1774952 0.5383228 1.3416508 1.1602931 0.6343865 -2.3336127 -1.4954022
quite -2.5233417 -0.20069996 1.6538597 -0.68708 -0.36733824 0.4821332 -0.5016037 2.0986638 0.70170546 0.9069644 -0.6985917 -1.4509689 0.87557155 -1.3911805 1.1702013 -0.023348717 1.0389656 -0.026464235 1.9896884 0.19968857 0.08175262 -2.23973 0.7753628 0.7219009 -0.1714328 0.15661941 -0.31478655 -0.077982225 0.23424657 1.0729069 0.44109017 -2.605511 -0.71110576 -0.10182217 1.3549291 1.718343 -1.4354573 -1.3989315 -0.80923784 -1.6110603 -1.3571368 -0.103838466 0.9484692 0.092584126 0.60917664 -1.6188227 0.6790704 -0.032666635 -0.17782074 -1.3358549 -1.2254763 0.2750728 -1.4376822 0.36914062 -0.7733361 -0.116354614 0.17820162 -1.726724 0.14594777 -1.2964057 0.69035965 -0.1704157 -1.8987159 -2.031524 -2.2838945 -0.62671095 2.342165 -0.12019488 0.64428675 0.28427166 1.1502299 0.08564825 -1.572826 0.4030545 -0.13730319 -1.3942014 -0.9330705 -1.4079626 -0.20296927 -0.073562056 -0.06070556 1.5987036 -0.7738097 -0.7251051 0.58566123 1.2750354 1.597996 1.2207465 1.3931248 -2.1161618 0.67578554 -1.0022795 2.2654855 -0.41102672 -1.774014 0.97176313 -0.780537 0.08818429 0.40716663 1.6021906
my -1.643509 0.27006468 0.18661892 -1.473532 -1.256287 -0.23819923 0.9605885 -2.109145 2.310616 -1.2798209 0.3966645 -0.62186056 1.7585443 -0.77504486 1.2755643 -0.732103 -1.2966164 -0.12200732 0.6576353 1.4329934 -0.59524155 -0.37798044 -1.4155267 -1.5061281 -0.75183886 -0.5376106 -1.4793599 -0.38193458 -1.4649546 -1.1069537 -0.74133337 -1.2831948 0.78087014 -1.6161516 -1.4951478 -1.5608549 -0.8967732 0.049713984 1.7482716 1.4510989 1.0335199 0.7797545 -1.3798357 -1.0038345 1.0529298 0.9528365 -1.0488672 -0.41661835 0.67065805 -1.9033383 -1.8272995 -1.4873147 -1.1000123 -0.11523452 -1.0941839 -1.3880295 0.36010432 0.6040957 -1.3166199 -0.6306054 1.7902216 0.2247791 -0.9885416 2.0710368 -0.022008859 2.583163 2.622474 -4.528022 -0.64351636 -1.7801154 0.27428615 0.93077296 -0.36811987 -0.1943335 0.43463588 -0.17251031 0.69239247 2.19506 -4.0388064 0.30749947 1.0800275 -1.3691025 -3.20582 0.56844425 1.2230442 -0.4584668 -0.54130524 1.8503233 1.6887103 -3.4685771 0.1047747 0.27188978 -1.4132997 0.1039629 -0.046343084 -0.7347129 -0.3947517 0.4795158 0.25556302 0.42022127
who -1.4163109 -1.3250052 0.94422376 3.9215746 -1.6092532 1.4920441 -0.17324442 -1.3258219 2.6656969 -0.2738611 0.76976687 0.94001067 1.1211723 3.2308865 -0.17146654 0.49675262 -0.22350268 0.02760148 -0.5705084 -0.40910155 0.10977355 0.17210336 0.16498157 0.54765177 -0.63456994 -0.8942736 1.4313731 0.09318969 0.0847195 1.3079917 0.51467204 -1.5498921 -1.7519411 -0.6955496 0.27089387 0.55420256 -0.8512631 0.6153705 -0.5825862 -0.9515743 -0.0502786 -2.3701715 0.42318404 1.3042711 0.92049015 -0.32211208 0.04851689 -1.364028 1.4921014 -1.973157 0.5378998 0.2705843 0.56812805 1.3747444 -2.468201 0.076600626 -1.6941766 -0.46440056 0.4712376 -0.8874699 -1.9333456 -2.1576908 -1.5149689 -1.5158924 -0.18293539 0.51447004 -0.9025724 -1.489983 0.2911003 1.2830774 -0.022633469 -0.5760744 -0.39272732 2.0243576 -2.404929 1.387085 -0.63783896 -0.7710411 0.9983272 -2.017811 -0.5333019 -1.2996801 -1.1624157 2.5243952 -0.8451163 -0.56916744 -0.60712826 -1.0939469 -0.6143783 -1.714374 0.117698334 -2.075567 0.16763952 -1.8471351 -0.76022476 -1.1006042 0.2509226 0.10140693 -0.4845094 -1.1596193
don't 0.16331388 -0.017287144 0.33413926 1.6287974 -0.83925134 -1.7187132 1.5482969 -0.20234905 0.6364142 3.0659268 0.23382322 -0.6771089 -1.8199239 1.0281752 1.7280988 0.03559448 0.6391318 -0.5564988 -1.4956076 0.013735981 -1.3534247 -1.5530313 0.43059206 1.800539 0.23602982 1.3746774 0.7213762 2.5439944 2.0537667 0.8510946 -1.2985694 -0.6511021 2.6191826 -1.3602909 0.532168 1.108702 0.4857408 -0.29485765 -0.7236528 0.88898534 1.2588491 -0.12034178 1.9613233 1.030006 -0.2783742 -0.502658 0.11353552 -1.8568263 -0.8833912 0.8833662 -1.6538113 -0.017166188 -2.0422833 -0.19292644 0.42394212 1.915979 1.480756 -0.010579429 0.07785398 -0.0206275 -0.15089865 -0.39282125 -0.5704962 0.49895555 0.2644455 -0.75839764 -1.4661855 -0.4069189 -0.82447624 -0.15266016 -0.33312696 -0.12253247 -0.5575393 -0.8248847 -2.7366385 1.1005195 -0.87252635 -3.4141066 -0.08462567 0.13747454 1.0412042 -1.4948037 -2.5009987 -3.1938462 0.9089564 0.19530512 0.22996172 0.45669138 1.174006 -1.3624761 -1.0961548 0.07286498 0.39382645 -0.6781291 2.2844348 2.0196748 0.12725699 -1.5020136 -0.5345179 -0.4218595
hatter 0.5849886 0.7127139 -1.1126442 0.12452188 -0.8346882 1.406165 -0.3545185 -0.56473917 -0.6415733 -1.094174 -1.7641561 0.93727595 -0.5120257 -1.5230777 -0.88113695 0.85804456 -2.184784 0.13066423 -0.7462803 0.23887362 -0.22490837 -1.4547697 -2.0605474 0.4447778 1.1540891 1.2032008 0.8413791 1.5627627 -1.4961739 -1.2388685 2.2084386 0.17486265 -1.019811 -0.07628763 -0.36218873 0.55317926 -1.7943184 -0.943167 0.37646228 -1.837884 -1.8957388 -0.81308633 1.3790407 0.63339466 -0.54779845 -0.885532 0.88497484 1.1180594 -0.19956954 -1.6078856 -0.74118084 0.9219253 -0.5300857 -1.54799 -2.699832 -0.45598033 1.5698625 0.5613427 1.0461066 1.3155074 -1.5452538 -2.372688 -0.28794113 0.22654511 -1.3759047 -0.7387344 0.9602786 1.6329978 -0.687725 1.00254 -2.4230254 -0.73187166 0.15716293 1.7106419 0.8032245 1.380252 1.5476266 -0.58426875 0.32228002 -2.1618772 -0.9234343 2.2404692 0.5839565 -1.1509675 -0.6735285 0.91386205 0.53520155 1.1629645 -1.892747 0.3164302 -1.4680327 -0.8785476 -0.41624638 0.096702985 -0.8665272 2.6599414 2.747511 0.4810829 -1.5795312 0.023594942
turtle -0.6647031 -0.0437884 -1.0042195 0.7693328 -0.13709402 2.2870233 0.5228973 -2.664613 -0.27153078 -1.1524729 0.15936972 1.8835733 -0.34832463 -1.6267459 -1.0113513 -2.1807063 -2.618505 2.1636782 0.33147636 1.0792348 -1.4071004 0.48825347 -1.9795234 -0.38773566 0.41302815 0.07680438 1.7915653 -0.9786631 0.20250612 -0.23131454 0.8444214 -1.2170336 -1.6415553 1.4690368 -0.20983836 1.4359182 2.021703 2.8886445 1.195602 0.78467816 -2.277876 -0.23511232 2.2811456 1.0374585 1.9195093 -0.2654675 -1.4895368 -0.36688906 -0.7634395 -0.05086241 0.6506143 0.62752146 1.4921458 0.19549304 -0.958803 -0.34273875 -0.59097433 2.083962 -0.013801179 -1.728527 -1.4390607 -1.4685136 1.464446 0.56971425 0.23761061 -0.5465618 -1.5817587 -0.109226435 0.5390087 1.0597887 -0.4828673 -0.58050305 0.84597147 -2.1591384 0.91221935 -0.43792003 -1.5334443 -1.2870812 -0.6128183 -3.0020967 -1.2130371 -1.0697901 -1.6825548 -1.6519377 0.327491 0.21443485 -1.6100194 -0.18649872 -0.62316537 -1.9902084 -0.073711045 -0.8117767 -0.8868101 -0.42291814 0.18811096 -0.013351088 0.7384033 -0.4898849 0.07623014 0.116690874
gryphon 1.4803833 1.1101229 -2.8576448 0.87837464 -0.42803147 1.208349 -0.6300228 -1.1908736 -2.0302896 -0.40649077 -0.7486236 0.44599274 -0.33504915 0.033690985 0.32596514 0.34819406 -0.5888146 -0.118706524 -1.1592178 -0.75223047 0.4681495 -1.2349386 -1.3092636 0.37242976 0.5119707 0.7548824 0.1902156 1.0777802 0.8937793 -0.4047175 0.25423092 -0.3281793 1.1103342 -2.515404 1.8865062 -0.07059973 -1.6663299 -0.89481336 -0.66864234 1.3609873 -1.5513376 1.1785854 -0.059229735 1.7698275 -0.024182392 0.3827974 -1.6114014 -0.9198339 0.5586929 0.706998 -0.29587582 0.3556748 1.3074225 -1.913352 -1.143873 0.17165522 1.7406799 1.4654973 -0.7130289 0.3926534 -0.089086756 0.025896182 -1.1339803 -0.045194708 0.051828813 1.7902683 0.028838985 -0.15460196 0.8671965 1.5631647 -2.4949493 -0.18729027 0.7301771 0.2932069 0.7537109 0.01728828 -0.37923932 -1.6431495 0.27237704 -2.4907155 1.0330019 0.2670882 0.70493263 -0.97732115 0.7518637 -0.26470408 0.87222826 1.1927698 -1.5642059 -0.09947104 0.38126135 0.5158877 -0.28376755 1.2463324 0.36052597 1.9916515 1.25225 1.1306304 -1.7799864 -1.5753366
think 0.08173062 -0.3547839 -0.43001685 1.4949836 -1.5463284 -1.7828408 -0.49152598 0.37713304 -0.5987758 0.096015714 -0.0037398438 0.65696985 0.9535857 -0.45432138 -0.2609996 -0.9066573 0.580446 -1.2519335 0.1652213 0.08441269 1.0214481 -0.6686165 0.11418673 -1.509961 1.6258873 -0.5517837 1.1727964 1.2623909 -1.1419101 1.5572749 0.90487176 -0.7485774 -1.9155786 -1.1525128 -0.050842322 -0.094368674 -0.87582916 0.20553671 0.30842996 -0.5087482 -0.48519507 0.37147433 -0.47523555 1.0295205 1.1015583 -0.108134545 0.7732638 0.30852902 -0.68035233 0.4131971 -0.4330726 0.11327592 0.39844304 -1.3977377 -1.194792 2.2309482 -1.6167685 1.7747369 0.37525725 0.1500039 0.35383457 -2.2412026 -0.9811024 -2.0632205 -1.6240169 -0.3656397 -1.3618093 -1.3222404 -1.6246805 -0.7108372 0.7014479 -0.31132025 -0.10279459 1.2797353 -0.83808213 1.024721 2.2980785 0.38485935 -0.40996194 0.06924394 -0.47885492 -1.8410014 0.42288736 -1.134791 -0.100130476 0.15141796 3.9988167 -0.4047032 0.023505537 -1.0304499 3.461719 -0.21233651 0.10996314 0.50531584 -1.0790604 0.52852494 0.32821253 -0.080310956 -1.394511 -0.35748917
how -0.12338554 -1.6321487 0.6683653 1.0163294 -0.6368352 -0.77654153 0.701721 -0.5126669 -0.25939894 0.009192213 -0.8441667 0.63935685 -1.6302358 1.949325 -0.58756906 -2.5657904 1.1314019 -1.5281651 0.13389838 0.8848417 1.2392375 0.17910205 1.1363664 1.2100971 0.6118783 -1.2038581 2.2281287 -0.4426678 2.18836 -0.1302535 -1.0155917 -2.281929 0.9706852 -0.74112386 -1.6567878 -0.33621877 1.4640784 0.74816024 -0.6497997 -0.47436237 0.40174934 -2.4823868 0.2510946 0.68545496 0.98240036 0.30062598 0.26607466 0.64239615 0.781282 -0.48278287 2.022859 1.0285047 -4.438751 1.3723513 -0.41373444 0.90027404 0.4837935 2.578718 -0.84002584 -0.8978657 -0.59589624 0.08652474 -0.6141294 0.73415554 0.796539 -0.3290787 1.788768 -0.41176462 -0.4744382 -1.3322392 0.04954655 -0.79726255 1.1766067 2.60369 1.6009184 0.06906571 -0.8462272 -1.5576248 -0.35811958 0.13652661 -0.2758286 0.7285113 -1.1670623 -0.7995226 -1.1510266 0.47319993 3.759033 -0.08223257 -0.559449 -1.3684434 0.26590344 1.5303266 0.44448078 1.2030263 1.3774949 -3.2579257 0.7920452 1.143382 -1.3615189 0.010539606
much 1.0794445 0.86892533 -0.28278258 0.6019426 -1.8194782 -0.3561147 -1.1049932 -1.3409827 0.8309164 0.1828522 -1.3026719 -0.946197 1.966198 -1.0681386 -0.8252792 -0.16404903 -0.8788862 -1.9590286 0.3745996 -3.9124703 0.97330904 0.476323 -1.2947916 -0.2602899 -0.46538928 -2.1053898 1.1857021 0.45953012 -0.5519423 1.8743954 -0.29356503 0.099401414 -2.0915308 0.4133802 2.0143 0.43128532 0.69288784 1.4266807 -0.08808286 0.048781995 1.6873926 0.26797104 0.2955889 -1.1186321 -0.68853456 0.8899747 -0.46437478 0.3730841 -1.6364532 0.99186796 -0.7509682 0.6921488 -0.6425659 1.0090308 -0.22174887 0.49381185 -0.39156073 0.734306 3.2455382 0.06544003 -0.25104654 -2.0882616 -3.4633152 0.13583839 -0.659665 0.5862404 -0.026502684 0.8052935 -0.8414332 1.1308017 1.1584686 0.33156452 -1.0530897 -0.80028176 -0.09062013 1.304109 -1.2556729 1.5110289 -1.4645412 0.29105753 -0.60739636 -0.833389 0.034760706 -0.32255313 -1.2124157 -2.0954878 -0.2906872 -0.28507864 -0.7145703 -1.10456 1.2191492 1.4649508 2.8337123 0.7685051 1.0352402 0.6023968 0.51540166 1.0475137 -0.49819672 0.4331491
their -2.4790518 -0.16393214 -0.69207317 -0.9236462 -1.3598577 -2.2633846 0.35459936 1.6863613 -0.15852225 -0.07102058 -0.68166196 2.933876 1.0034347 -1.1991191 -1.7285184 -1.4464705 -0.36329144 0.960447 -0.4352765 1.9527612 -1.0982368 1.344195 -0.30335924 -0.54868054 -2.3058052 1.0362426 -0.6284809 -1.25739 0.09851792 -1.1027884 1.2011352 -1.1357162 -0.4163936 -1.8579649 -0.97885174 -1.3701451 1.9672799 -1.2381736 0.8503664 -0.32145947 1.0584933 0.17279701 0.15488127 -1.9468982 -2.080989 1.2637813 0.13167779 -1.8060031 -0.052892286 2.3279512 1.7924218 -0.7317548 -0.1952916 0.06638177 1.2349473 -0.41179472 2.3378608 -1.8749673 -2.2525399 0.13138866 1.328522 1.0703926 -0.7292675 1.3199615 -0.23499705 1.6577513 0.6538336 0.34223056 0.6708622 -0.74535465 -0.59052896 2.914162 1.7163469 -3.0364404 -0.36883911 0.7883954 0.33032492 1.8760588 -3.6663709 -0.11133576 -0.8482276 1.3532511 0.9591605 -2.9528134 -0.9120752 0.7023869 -0.03278264 0.8502909 1.5145962 0.08459278 0.7862894 2.0707922 -0.56174403 -0.36387572 -0.41862643 -1.4240655 -0.5464144 2.1049316 1.3229165 -0.4447874
say -0.33813384 0.28706798 -0.42945382 -1.4970841 0.018239083 -0.5897684 -2.8962483 0.1272913 0.48371965 -1.8232028 -0.83933616 1.9717941 0.60104513 1.0532379 -0.2797895 0.085527614 0.27274135 -1.9482509 0.80745065 -0.21605092 0.23802118 -1.2950549 0.057064038 -0.8170713 0.67385536 0.2772804 0.09024448 0.10518183 1.443156 3.1425018 0.9231077 -0.27582428 1.1117932 -0.887389 0.47422835 -0.6674128 -0.9364714 0.3280357 -1.826626 0.108697906 1.0325266 0.9061207 0.16672458 0.31473887 -0.3945527 -0.602126 -0.4203668 -2.1302788 -2.427194 0.2579614 1.523172 -1.4251468 0.5841164 -1.6923895 -1.5740861 0.07264981 -1.6398333 1.7507403 1.818977 1.1564338 -1.0745035 -1.048663 -0.10980069 0.2240712 -0.6414001 -0.22919224 -1.2607687 0.25417307 -1.4473277 -0.5413389 -0.60526174 0.69943684 0.6810809 -2.0609508 1.9728266 0.055507567 0.8386766 -2.1311755 -0.4729631 -1.369661 -1.8464172 -0.703283 -0.17903443 0.9002461 0.40937567 -0.9347083 -0.5708509 0.5500178 -0.7949656 0.8397662 1.0680683 -2.3262246 -0.7961545 -0.31974506 0.039774124 0.8379565 0.37971914 -1.5079167 -1.3302578 -0.8968055
some 0.014131223 0.3835002 -1.5830272 -2.0911496 -0.020133939 0.64610314 -1.991627 0.5048755 1.5279095 0.62043846 2.161454 1.7102395 -2.0017953 -0.86198556 0.31565398 0.8969874 -1.218082 -0.46827218 0.31197867 0.6905305 -0.11742271 1.1629007 0.1331138 1.5074617 -0.5106444 0.28382748 -2.3720844 -0.6940104 -0.5494254 -0.24141498 1.2046114 -1.4122027 -0.771758 -1.5994295 1.2592818 0.2698021 1.110669 0.8642878 1.2643043 0.049966846 1.0677226 -0.4157231 -1.0801574 -0.8341653 2.78078 1.678507 -0.48670888 0.98883134 2.6289768 -0.8277068 0.513581 -1.879961 -0.40924126 -1.3143524 0.3948413 0.33471254 -0.21237926 -1.9278018 2.4004095 0.2435642 0.5021859 2.7242222 -0.7511757 -1.5612868 -0.5187837 -1.7202239 0.07926947 -1.321466 -1.4676374 0.40800154 -0.8109088 -0.04214521 0.7661452 0.22733408 -1.2566631 -2.8663948 0.85778624 0.4961176 -0.47078884 -0.23685025 -0.2826619 -1.9203718 -1.1856548 -2.1759443 1.6466073 1.0813926 -0.4424124 0.9403076 -0.5594181 -1.4078723 0.59450203 -0.9201464 0.57528895 -0.123787604 1.1402135 -1.2524589 -1.8462974 2.7434814 -0.0073481607 0.3224726
now -1.3478963 2.2297618 -1.1212423 0.64039433 -0.6887689 -0.3506999 -1.6887573 -1.1669574 1.8084459 1.1245431 -1.0791336 1.6055806 1.0635363 0.520562 0.1835728 0.29461578 0.52777857 -0.8348805 -2.5664976 -1.9818627 -1.1492093 -0.12068532 -1.0519543 -1.5835358 -0.32153615 -0.97284615 4.461349 -1.3335516 -0.81142515 3.0750895 -1.5452607 -0.43047252 2.0043628 1.2471136 -1.6235015 0.319814 -1.6911534 -1.7306838 -1.1898938 0.06126481 1.0003588 1.099005 -0.031979755 -0.47411564 -0.12165057 0.7376516 0.08728347 -1.3927228 -0.23126999 -1.3059894 -0.6126318 1.0173594 -0.4601272 -1.1991138 -0.46171394 0.26069444 0.5280928 0.5293713 -1.1723355 0.36746478 0.0242971 -0.16983534 0.099866316 1.8649595 0.4116298 -0.4568028 0.066686206 -0.7324481 0.2437511 1.3755872 -1.1268709 -0.9014631 1.0965837 1.3615177 0.29008484 2.0742383 -0.8090624 -0.16519204 -1.4876754 -0.95771325 -0.550271 0.32442194 -1.281797 -0.71226925 0.7983249 0.12293799 0.28421527 -1.0612875 0.87272334 0.55271226 1.7687622 1.1500428 -0.2264044 -0.41007367 -0.041053195 -0.63299674 0.63239974 1.0705162 -1.4879601 -0.10336097
just 0.13181853 1.2512358 0.24756329 1.1657832 -0.79740024 -0.24892569 -1.5230945 -1.8151547 1.1952451 -0.4716282 1.3795564 0.14423145 -1.498179 1.9786594 -0.2886689 0.44131443 0.87396646 0.3855583 -1.626233 -0.2753082 0.3689441 -0.453256 -1.5427212 0.35956413 -0.6054997 -0.5545052 -0.865114 2.2818944 -1.6801025 -2.3823168 0.16951609 -2.0264518 -0.5569824 -2.2347612 0.99318236 1.6743807 -1.1134418 0.5882467 -1.7319764 -0.74423015 1.1881989 0.907875 1.42642 0.32562232 0.7371316 1.9657178 0.13517553 -1.0914813 1.1810534 -1.6625973 -0.23735784 -0.2248991 -0.6215255 -1.1243864 -0.57253456 -1.4153485 -1.0514215 -0.009975876 -1.3880479 -0.20375058 0.36126155 0.52299213 -0.5736581 -0.74353343 -1.766319 -0.09823565 -1.0416433 0.8140804 -0.62876195 -1.4607686 -0.6775109 -0.7676159 -0.7374893 -1.1684754 0.06513929 0.8358053 -0.6556391 -0.5924331 0.09265709 -1.1833427 -0.06633241 0.06116338 1.0600882 1.0687813 -1.197076 1.7029849 -1.0639688 1.4547493 0.19314688 -1.3597597 1.7687024 -2.233709 1.2383895 0.8734457 1.8739296 -0.24223965 -0.17596532 0.072568044 -0.6906833 -2.634333
first -0.70476884 -0.037860848 -2.577612 2.917044 0.33951062 -1.4106683 -1.0387137 0.29166076 -0.690704 -0.9730917 1.8190644 -0.75473225 0.93297577 -1.1562328 0.47418353 -1.0251676 0.024351055 1.3692726 -1.2995148 -0.43413696 -0.590366 -1.1489569 0.63006335 0.8341142 1.5183609 -0.7846786 1.182192 -2.614641 -0.6961056 -2.1655452 -1.0048575 0.96737915 0.44509444 -0.23968782 2.339774 -0.54314566 -0.0650422 0.112067245 0.6449017 -0.53995836 -0.24256258 -0.06316941 0.7073675 -0.12513433 1.88175 0.37247312 0.1327773 2.9131076 1.2926108 -1.2684678 -1.4393195 -0.90601295 -0.41356173 0.4394432 0.53120184 0.10297079 -0.038619615 0.903819 0.4155365 1.5964504 -0.85159177 -1.6040074 1.6712866 0.4788794 -0.81511205 -1.082599 0.5629551 0.0729293 1.4533725 -0.47387314 -1.4592186 0.46333152 1.667198 0.4242967 0.38811967 0.19672817 0.90743756 -2.056923 -1.0666913 0.8190418 -0.2111729 -1.0167565 -0.6112831 -0.14910272 0.7218414 1.2834651 2.7638829 -0.5210404 1.4739566 0.7179587 -0.4986587 -0.85515374 -0.5378323 -0.5893029 1.6754963 0.67018944 3.0200224 1.1165775 -0.23315573 1.0030882
